Layer,Weights,Biases,,,,,,,,,,,,,,,,,,,,,,,,,,,,,,,,,,,,,,,,,,,,,,,,,,,,,,,,,,,,,,,,,,,,,,,,,,,,,,,,,,,,,,,,,,,,,,,,,,,,,,,,,,,,,,,,,,,,,,,,,,,,,,,,,,,,,,,,,,,,,,,,,,,,,,,,,,,,,,,,,,,,,,,,,,,,,,,,,,,,,,,,,,,,,,,,,,,,,,,,,,,,,,,,,,,,,,,,,,,,,,,,,,,,,,,,,,,,,,,,,,,,,,,,,,,,,,,,,,,,,,,,,,,,,,,,,,,,,,,,,,,,,,,,,,,,,,,,,,,,,,,,,,,,,,,,,,,,,,,,,,,,,,,,,,,,,,,,,,,,,,,,,,,,,,,,,,,,,,,,,,,,,,,,,,,,,,,,,,,,,,,,,,,,,,,,,,,,,,,,,,,,,,,,,,,,,,,,,,,,,,,,,,,,,,,,,,,,,,,,,,,,,,,,,,,,,,,,,,,,,,,,,,,,,,,,,,,,,,,,,,,,,,,,,,,,,,,,,,,,,,,,,,,,,,,,,,,,,,,,,,,,,,,,,,,,,,,,,,,,,,,,,,,,,,,,,,,,,,,,,,,,,,,,,,,,,,,,,,,,,,,,,,,,,,,,,,,,,,,,,,,,,,,,,,,,,,,,,,,,,,,,,,,,,,,,,,,,,,,,,,,,,,,,,,,,,,,,,,,,,,,,,,,,,,,,,,,,,,,,,,,,,,,,,,,,,,,,,,,,,,,,,,,,,,,,,,,,,,,,,,,,,,,,,,,,,,,,,,,,,,,,,,,,,,,,,,,,,,,,,,,,,,,,,,,,,,,,,,,,,,,,,,,,,,,,,,,,,,,,,,,,,,,,,,,,,,,,,,,,,,,,,,,,,,,,,,,,,,,,,,,,,,,,,,,,,,,,,,,,,,,,,,,,,,,,,,,,,,,,,,,,,,,,,,,,,,,,,,,,,,,,,,,,,,,,,,,,,,,,,,,,,,,,,,,,,,,,,,,,,,,,,,,,,,,,,,,,,,,,,,,,,,,,,,,,,,,,,,,,,,,,,,,,,,,,,,,,,,,,,,,,,,,,,,,,,,,,,,,,,,,,,,,,,,,,,,,,,,,,,,,,,,,,,,,,,,,,,,,,,,,,,,,,,,,,,,,,,,,,,,,,,,,,,,,,,,,,,,,,,,,,,,,,,,,,,,,,,,,,,,,,,,,,,,,,,,,,,,,,,,,,,,,,,,,,,,,,,,,,,,,,,,,,,,,,,,,,,,,,,,,,,,,,,,,,,,,,,,,,,,,,,,,,,,,,,,,,,,,,,,,,,,,,,,,,,,,,,,,,,,,,,,,,,,,,,,,,,,,,,,,,,,,,,,,,,,,,,,,,,,,,,,,,,,,,,,,,,,,,,,,,,,,,,,,,,,,,,,,,,,,,,,,,,,,,,,,,,,,,,,,,,,,,,,,,,,,,,,,,,,,,,,,,,,,,,,,,,,,,,,,,,,,,,,,,,,,,,,,,,,,,,,,,,,,,,,,,,,,,,,,,,,,,,,,,,,,,,,,,,,,,,,,,,,,,,,,,,,,,,,,,,,,,,,,,,,,,,,,,,,,,,,,,,,,,,,,,,,,,,,,,,,,,,,,,,,,,,,,,,,,,,,,,,,,,,,,,,,,,,,,,,,,,,,,,,,,,,,,,,,,,,,,,,,,,,,,,,,,,,,,,,,,,,,,,,,,,,,,,,,,,,,,,,,,,,,,,,,,,,,,,,,,,,,,,,,,,,,,,,,,,,,,,,,,,,,,,,,,,,,,,,,,,,,,,,,,,,,,,,,,,,,,,,,,,,,,,,,,,,,,,,,,,,,,,,,,,,,,,,,,,,,,,,,,,,,,,,,,,,,,,,,,,,,,,,,,,,,,,,,,,,,,,,,,,,,,,,,,,,,,,,,,,,,,,,,,,,,,,,,,,,,,,,,,,,,,,,,,,,,,,,,,,,,,,,,,,,,,,,,,,,,,,,,,,,,,,,,,,,,,,,,,,,,,,,,,,,,,,,,,,,,,,,,,,,,,,,,,,,,,,,,,,,,,,,,,,,,,,,,,,,,,,,,,,,,,,,,,,,,,,,,,,,,,,,,,,,,,,,,,,,,,,,,,,,,,,,,,,,,,,,,,,,,,,,,,,,,,,,,,,,,,,,,,,,,,,,,,,,,,,,,,,,,,,,,,,,,,,,,,,,,,,,,,,,,,,,,,,,,,,,,,,,,,,,,,,,,,,,,,,,,,,,,,,,,,,,,,,,,,,,,,,,,,,,,,,,,,,,,,,,,,,,,,,,,,,,,,,,,,,,,,,,,,,,,,,,,,,,,,,,,,,,,,,,,,,,,,,,,,,,,,,,,,,,,,,,,,,,,,,,,,,,,,,,,,,,,,,,,,,,,,,,,,,,,,,,,,,,,,,,,,,,,,,,,,,,,,,,,,,,,,,,,,,,,,,,,,,,,,,,,,,,,,,,,,,,,,,,,,,,,,,,,,,,,,,,,,,,,,,,,,,,,,,,,,,,,,,,,,,,,,,,,,,,,,,,,,,,,,,,,,,,,,,,,,,,,,,,,,,,,,,,,,,,,,,,,,,,,,,,,,,,,,,,,,,,,,,,,,,,,,,,,,,,,,,,,,,,,,,,,,,,,,,,,,,,,,,,,,,,,,,,,,,,,,,,,,,,,,,,,,,,,,,,,,,,,,,,,,,,,,,,,,,,,,,,,,,,,,,,,,,,,,,,,,,,,,,,,,,,,,,,,,,,,,,,,,,,,,,,,,,,,,,,,,,,,,,,,,,,,,,,,,,,,,,,,,,,,,,,,,,,,,,,,,,,,,,,,,,,,,,,,,,,,,,,,,,,,,,,,,,,,,,,,,,,,,,,,,,,,,,,,,,,,,,,,,,,,,,,,,,,,,,,,,,,,,,,,,,,,,,,,,,,,,,,,,,,,,,,,,,,,,,,,,,,,,,,,,,,,,,,,,,,,,,,,,,,,,,,,,,,,,,,,,,,,,,,,,,,,,,,,,,,,,,,,,,,,,,,,,,,,,,,,,,,,,,,,,,,,,,,,,,,,,,,,,,,,,,,,,,,,,,,,,,,,,,,,,,,,,,,,,,,,,,,,,,,,,,,,,,,,,,,,,,,,,,,,,,,,,,,,,,,,,,,,,,,,,,,,,,,,,,,,,,,,,,,,,,,,,,,,,,,,,,,,,,,,,,,,,,,,,,,,,,,,,,,,,,,,,,,,,,,,,,,,,,,,,,,,,,,,,,,,,,,,,,,,,,,,,,,,,,,,,,,,,,,,,,,,,,,,,,,,,,,,,,,,,,,,,,,,,,,,,,,,,,,,,,,,,,,,,,,,,,,,,,,,,,,,,,,,,,,,,,,,,,,,,,,,,,,,,,,,,,,,,,,,,,,,,,,,,,,,,,,,,,,,,,,,,,,,,,,,,,,,,,,,,,,,,,,,,,,,,,,,,,,,,,,,,,,,,,,,,,,,,,,,,,,,,,,,,,,,,,,,,,,,,,,,,,,,,,,,,,,,,,,,,,,,,,,,,,,,,,,,,,,,,,,,,,,,,,,,,,,,,,,,,,,,,,,,,,,,,,,,,,,,,,,,,,,,,,,,,,,,,,,,,,,,,,,,,,,,,,,,,,,,,,,,,,,,,,,,,,,,,,,,,,,,,,,,,,,,,,,,,,,,,,,,,,,,,,,,,,,,,,,,,,,,,,,,,,,,,,,,,,,,,,,,,,,,,,,,,,,,,,,,,,,,,,,,,,,,,,,,,,,,,,,,,,,,,,,,,,,,,,,,,,,,,,,,,,,,,,,,,,,,,,,,,,,,,,,,,,,,,,,,,,,,,,,,,,,,,,,,,,,,,,,,,,,,,,,,,,,,,,,,,,,,,,,,,,,,,,,,,,,,,,,,,,,,,,,,,,,,,,,,,,,,,,,,,,,,,,,,,,,,,,,,,,,,,,,,,,,,,,,,,,,,,,,,,,,,,,,,,,,,,,,,,,,,,,,,,,,,,,,,,,,,,,,,,,,,,,,,,,,,,,,,,,,,,,,,,,,,,,,,,,,,,,,,,,,,,,,,,,,,,,,,,,,,,,,,,,,,,,,,,,,,,,,,,,,,,,,,,,,,,,,,,,,,,,,,,,,,,,,,,,,,,,,,,,,,,,,,,,,,,,,,,,,,,,,,,,,,,,,,,,,,,,,,,,,,,,,,,,,,,,,,,,,,,,,,,,,,,,,,,,,,,,,,,,,,,,,,,,,,,,,,,,,,,,,,,,,,,,,,,,,,,,,,,,,,,,,,,,,,,,,,,,,,,,,,,,,,,,,,,,,,,,,,,,,,,,,,,,,,,,,,,,,,,,,,,,,,,,,,,,,,,,,,,,,,,,,,,,,,,,,,,,,,,,,,,,,,,,,,,,,,,,,,,,,,,,,,,,,,,,,,,,,,,,,,,,,,,,,,,,,,,,,,,,,,,,,,,,,,,,,,,,,,,,,,,,,,,,,,,,,,,,,,,,,,,,,,,,,,,,,,,,,,,,,,,,,,,,,,,,,,,,,,,,,,,,,,,,,,,,,,,,,,,,,,,,,,,,,,,,,,,,,,,,,,,,,,,,,,,,,,,,,,,,,,,,,,,,,,,,,,,,,,,,,,,,,,,,,,,,,,,,,,,,,,,,,,,,,,,,,,,,,,,,,,,,,,,,,,,,,,,,,,,,,,,,,,,,,,,,,,,,,,,,,,,,,,,,,,,,,,,,,,,,,,,,,,,,,,,,,,,,,,,,,,,,,,,,,,,,,,,,,,,,,,,,,,,,,,,,,,,,,,,,,,,,,,,,,,,,,,,,,,,,,,,,,,,,,,,,,,,,,,,,,,,,,,,,,,,,,,,,,,,,,,,,,,,,,,,,,,,,,,,,,,,,,,,,,,,,,,,,,,,,,,,,,,,,,,,,,,,,,,,,,,,,,,,,,,,,,,,,,,,,,,,,,,,,,,,,,,,,,,,,,,,,,,,,,,,,,,,,,,,,,,,,,,,,,,,,,,,,,,,,,,,,,,,,,,,,,,,,,,,,,,,,,,,,,,,,,,,,,,,,,,,,,,,,,,,,,,,,,,,,,,,,,,,,,,,,,,,,,,,,,,,,,,,,,,,,,,,,,,,,,,,,,,,,,,,,,,,,,,,,,,,,,,,,,,,,,,,,,,,,,,,,,,,,,,,,,,,,,,,,,,,,,,,,,,,,,,,,,,,,,,,,,,,,,,,,,,,,,,,,,,,,,,,,,,,,,,,,,,,,,,,,,,,,,,,,,,,,,,,,,,,,,,,,,,,,,,,,,,,,,,,,,,,,,,,,,,,,,,,,,,,,,,,,,,,,,,,,,,,,,,,,,,,,,,,,,,,,,,,,,,,,,,,,,,,,,,,,,,,,,,,,,,,,,,,,,,,,,,,,,,,,,,,,,,,,,,,,,,,,,,,,,,,,,,,,,,,,,,,,,,,,,,,,,,,,,,,,,,,,,,,,,,,,,,,,,,,,,,,,,,,,,,,,,,,,,,,,,,,,,,,,,,,,,,,,,,,,,,,,,,,,,,,,,,,,,,,,,,,,,,,,,,,,,,,,,,,,,,,,,,,,,,,,,,,,,,,,,,,,,,,,,,,,,,,,,,,,,,,,,,,,,,,,,,,,,,,,,,,,,,,,,,,,,,,,,,,,,,,,,,,,,,,,,,,,,,,,,,,,,,,,,,,,,,,,,,,,,,,,,,,,,,,,,,,,,,,,,,,,,,,,,,,,,,,,,,,,,,,,,,,,,,,,,,,,,,,,,,,,,,,,,,,,,,,,,,,,,,,,,,,,,,,,,,,,,,,,,,,,,,,,,,,,,,,,,,,,,,,,,,,,,,,,,,,,,,,,,,,,,,,,,,,,,,,,,,,,,,,,,,,,,,,,,,,,,,,,,,,,,,,,,,,,,,,,,,,,,,,,,,,,,,,,,,,,,,,,,,,,,,,,,,,,,,,,,,,,,,,,,,,,,,,,,,,,,,,,,,,,,,,,,,,,,,,,,,,,,,,,,,,,,,,,,,,,,,,,,,,,,,,,,,,,,,,,,,,,,,,,,,,,,,,,,,,,,,,,,,,,,,,,,,,,,,,,,,,,,,,,,,,,,,,,,,,,,,,,,,,,,,,,,,,,,,,,,,,,,,,,,,,,,,,,,,,,,,,,,,,,,,,,,,,,,,,,,,,,,,,,,,,,,,,,,,,,,,,,,,,,,,,,,,,,,,,,,,,,,,,,,,,,,,,,,,,,,,,,,,,,,,,,,,,,,,,,,,,,,,,,,,,,,,,,,,,,,,,,,,,,,,,,,,,,,,,,,,,,,,,,,,,,,,,,,,,,,,,,,,,,,,,,,,,,,,,,,,,,,,,,,,,,,,,,,,,,,,,,,,,,,,,,,,,,,,,,,,,,,,,,,,,,,,,,,,,,,,,,,,,,,,,,,,,,,,,,,,,,,,,,,,,,,,,,,,,,,,,,,,,,,,,,,,,,,,,,,,,,,,,,,,,,,,,,,,,,,,,,,,,,,,,,,,,,,,,,,,,,,,,,,,,,,,,,,,,,,,,,,,,,,,,,,,,,,,,,,,,,,,,,,,,,,,,,,,,,,,,,,,,,,,,,,,,,,,,,,,,,,,,,,,,,,,,,,,,,,,,,,,,,,,,,,,,,,,,,,,,,,,,,,,,,,,,,,,,,,,,,,,,,,,,,,,,,,,,,,,,,,,,,,,,,,,,,,,,,,,,,,,,,,,,,,,,,,,,,,,,,,,,,,,,,,,,,,,,,,,,,,,,,,,,,,,,,,,,,,,,,,,,,,,,,,,,,,,,,,,,,,,,,,,,,,,,,,,,,,,,,,,,,,,,,,,,,,,,,,,,,,,,,,,,,,,,,,,,,,,,,,,,,,,,,,,,,,,,,,,,,,,,,,,,,,,,,,,,,,,,,,,,,,,,,,,,,,,,,,,,,,,,,,,,,,,,,,,,,,,,,,,,,,,,,,,,,,,,,,,,,,,,,,,,,,,,,,,,,,,,,,,,,,,,,,,,,,,,,,,,,,,,,,,,,,,,,,,,,,,,,,,,,,,,,,,,,,,,,,,,,,,,,,,,,,,,,,,,,,,,,,,,,,,,,,,,,,,,,,,,,,,,,,,,,,,,,,,,,,,,,,,,,,,,,,,,,,,,,,,,,,,,,,,,,,,,,,,,,,,,,,,,,,,,,,,,,,,,,,,,,,,,,,,,,,,,,,,,,,,,,,,,,,,,,,,,,,,,,,,,,,,,,,,,,,,,,,,,,,,,,,,,,,,,,,,,,,,,,,,,,,,,,,,,,,,,,,,,,,,,,,,,,,,,,,,,,,,,,,,,,,,,,,,,,,,,,,,,,,,,,,,,,,,,,,,,,,,,,,,,,,,,,,,,,,,,,,,,,,,,,,,,,,,,,,,,,,,,,,,,,,,,,,,,,,,,,,,,,,,,,,,,,,,,,,,,,,,,,,,,,,,,,,,,,,,,,,,,,,,,,,,,,,,,,,,,,,,,,,,,,,,,,,,,,,,,,,,,,,,,,,,,,,,,,,,,,,,,,,,,,,,,,,,,,,,,,,,,,,,,,,,,,,,,,,,,,,,,,,,,,,,,,,,,,,,,,,,,,,,,,,,,,,,,,,,,,,,,,,,,,,,,,,,,,,,,,,,,,,,,,,,,,,,,,,,,,,,,,,,,,,,,,,,,,,,,,,,,,,,,,,,,,,,,,,,,,,,,,,,,,,,,,,,,,,,,,,,,,,,,,,,,,,,,,,,,,,,,,,,,,,,,,,,,,,,,,,,,,,,,,,,,,,,,,,,,,,,,,,,,,,,,,,,,,,,,,,,,,,,,,,,,,,,,,,,,,,,,,,,,,,,,,,,,,,,,,,,,,,,,,,,,,,,,,,,,,,,,,,,,,,,,,,,,,,,,,,,,,,,,,,,,,,,,,,,,,,,,,,,,,,,,,,,,,,,,,,,,,,,,,,,,,,,,,,,,,,,,,,,,,,,,,,,,,,,,,,,,,,,,,,,,,,,,,,,,,,,,,,,,,,,,,,,,,,,,,,,,,,,,,,,,,,,,,,,,,,,,,,,,,,,,,,,,,,,,,,,,,,,,,,,,,,,,,,,,,,,,,,,,,,,,,,,,,,,,,,,,,,,,,,,,,,,,,,,,,,,,,,,,,,,,,,,,,,,,,,,,,,,,,,,,,,,,,,,,,,,,,,,,,,,,,,,,,,,,,,,,,,,,,,,,,,,,,,,,,,,,,,,,,,,,,,,,,,,,,,,,,,,,,,,,,,,,,,,,,,,,,,,,,,,,,,,,,,,,,,,,,,,,,,,,,,,,,,,,,,,,,,,,,,,,,,,,,,,,,,,,,,,,,,,,,,,,,,,,,,,,,,,,,,,,,,,,,,,,,,,,,,,,,,,,,,,,,,,,,,,,,,,,,,,,,,,,,,,,,,,,,,,,,,,,,,,,,,,,,,,,,,,,,,,,,,,,,,,,,,,,,,,,,,,,,,,,,,,,,,,,,,,,,,,,,,,,,,,,,,,,,,,,,,,,,,,,,,,,,,,,,,,,,,,,,,,,,,,,,,,,,,,,,,,,,,,,,,,,,,,,,,,,,,,,,,,,,,,,,,,,,,,,,,,,,,,,,,,,,,,,,,,,,,,,,,,,,,,,,,,,,,,,,,,,,,,,,,,,,,,,,,,,,,,,,,,,,,,,,,,,,,,,,,,,,,,,,,,,,,,,,,,,,,,,,,,,,,,,,,,,,,,,,,,,,,,,,,,,,,,,,,,,,,,,,,,,,,,,,,,,,,,,,,,,,,,,,,,,,,,,,,,,,,,,,,,,,,,,,,,,,,,,,,,,,,,,,,,,,,,,,,,,,,,,,,,,,,,,,,,,,,,,,,,,,,,,,,,,,,,,,,,,,,,,,,,,,,,,,,,,,,,,,,,,,,,,,,,,,,,,,,,,,,,,,,,,,,,,,,,,,,,,,,,,,,,,,,,,,,,,,,,,,,,,,,,,,,,,,,,,,,,,,,,,,,,,,,,,,,,,,,,,,,,,,,,,,,,,,,,,,,,,,,,,,,,,,,,,,,,,,,,,,,,,,,,,,,,,,,,,,,,,,,,,,,,,,,,,,,,,,,,,,,,,,,,,,,,,,,,,,,,,,,,,,,,,,,,,,,,,,,,,,,,,,,,,,,,,,,,,,,,
Hiddeb layer 1,"[-0.8381856083869934, -0.742992639541626, 0.06480532139539719, -6.040725231170654, -0.054659534245729446, -3.9371025562286377, -0.029684418812394142, -0.6805808544158936, -0.23893526196479797, 1.0399880409240723, -0.08702993392944336, -2.09432315826416, 2.2652838230133057, -0.1140894666314125, -0.12379509955644608, -0.05660655349493027, 0.08813448250293732, -0.002175136236473918, 2.122462511062622, -0.0018440027488395572, 1.4430896043777466, 0.09371422231197357, -6.869610786437988, -2.650099277496338, -0.4575241506099701, -3.481884002685547, -0.14162953197956085, 2.176306962966919, -0.41595035791397095, -0.0584004744887352, -1.9288753271102905, -0.6985755562782288, -0.158609539270401, 0.5164133310317993, 0.22567065060138702, 0.0897677093744278, 0.1876695603132248, -0.3850834369659424, -0.008521406911313534, -0.06751192361116409, -2.9086599349975586, 0.03837856650352478, -0.23659935593605042, -0.14756596088409424, 1.8943349123001099, -1.5469306707382202, -0.06256823241710663, -0.14002688229084015, -4.849305629730225, -0.77541184425354, -0.20636390149593353, 0.13331343233585358, -0.0788799449801445, -0.09448916465044022, 1.2245891094207764, -0.06270511448383331, -0.012977848760783672, 1.4929782152175903, 0.06384842842817307, 1.5320051908493042, 0.043537698686122894, 2.22214674949646, 1.7140960693359375, -0.19947268068790436, 0.5230186581611633, 0.1514943391084671, -0.06401710957288742, -0.13727109134197235, -0.1426500827074051, -0.5371989607810974, -6.916330337524414, 0.43650051951408386, -6.4080681800842285, 0.5912936329841614, -0.2590027153491974, 0.08711687475442886, 0.14035922288894653, 0.038424570113420486, 0.030357137322425842, 0.04771929234266281, -0.13586051762104034, -5.4133782386779785, -3.238340139389038, 0.057768240571022034, -4.961404800415039, -0.437351256608963, -5.136199474334717, -0.07246291637420654, 0.10854698717594147, 2.051431179046631, -0.2755621373653412, -1.4707664251327515, 0.2401372641324997, 0.5039769411087036, 0.046834927052259445, 0.20195084810256958, 0.5140423774719238, -2.24143648147583, -5.271519660949707, -0.9214097857475281, -0.30426499247550964, -0.48994699120521545, 0.12012261152267456, 0.3868751525878906, 0.15971238911151886, -0.04055268317461014, -0.1776856929063797, -0.10349956899881363, 0.030887553468346596, 0.9714273810386658, 0.00278308242559433, -0.7011384963989258, -1.3846666812896729, 0.15311938524246216, 0.1359589844942093, 0.04709167033433914, -0.12836067378520966, -0.1113659143447876, -1.6106157302856445, 0.1013108417391777, 0.8473467826843262, -0.17684306204319, -0.33719682693481445, -0.6397355198860168, -0.26250478625297546, 0.8131372332572937, 0.04701080173254013, 0.33129480481147766, 0.05522884801030159, 0.04367488995194435, -1.1205557584762573, -0.4980924129486084, -0.09924426674842834, -0.2513580918312073, -0.16269701719284058, -0.19264987111091614, -0.22425879538059235, 0.040718309581279755, 0.13043753802776337, 0.21752505004405975, -0.9570623636245728, 0.038765136152505875, -0.06844556331634521, 0.04425884783267975, -1.5075994729995728, -0.45817169547080994, 0.11955047398805618, -0.09045622497797012, -0.4758754074573517, -1.0387916564941406, 0.0005713332793675363, -0.1687650978565216, 0.12823061645030975, 0.13630209863185883, -0.5715247392654419, 0.13654237985610962, 0.1018747016787529, -2.0691487789154053, 0.0106247179210186, -1.5504471063613892, -0.21230512857437134, -0.0723465159535408, 0.639218807220459, 0.1820162981748581, -0.5330802798271179, 0.8547730445861816, 0.20457912981510162, 0.01098702847957611, 0.14139214158058167, -0.4885782301425934, -0.09516493231058121, -0.23266024887561798, -0.28823456168174744, -0.297962486743927, 0.035982877016067505, 0.16640710830688477, -0.04670275002717972, 0.05753765255212784, -0.09986936300992966, 0.06973449140787125, 0.03115297481417656, 0.2501443028450012, -0.6808034181594849, 0.1256934404373169, -0.5315612554550171, -0.24505481123924255, -0.14303918182849884, 0.2746429443359375, -0.14618563652038574, 0.21810416877269745, -0.09411496669054031, -1.6630949974060059, -0.24235323071479797, -0.18288466334342957, 0.10753210633993149, -0.004522369708865881, -0.6239566802978516, -1.0921616554260254, -0.2370297908782959, 0.8124856948852539, -0.11215121299028397, 0.07339959591627121, -0.06820425391197205, 0.17899851500988007, -0.07077939063310623, -0.23083610832691193, -0.10450522601604462, 0.08350365608930588, -0.06708409637212753, -0.20860520005226135, 0.06382178515195847, -0.6002877354621887, -0.7677751183509827, -0.05760270357131958, -0.04914125055074692, 0.07526939362287521, 0.028887951746582985, -0.03566071391105652, -0.2713930606842041, -0.060287028551101685, -0.5362107753753662, -0.15877583622932434, -0.073280930519104, 0.3513379395008087, 0.09527856111526489, 0.17510086297988892, 0.07672572135925293, -0.35617950558662415, -0.2213057577610016, 0.019022194668650627, 0.3004459738731384, -0.23838813602924347, -0.10411903262138367, -0.1297624260187149, -0.013970663771033287, -0.08327803015708923, -0.251484215259552, 0.0908079668879509, 0.04682309553027153, -0.07600746303796768, -0.3008553385734558, 0.0546315535902977, -0.13342896103858948, -0.1847800612449646, -0.45294177532196045, -0.030160263180732727, -0.02662569098174572, 0.02492450177669525, 0.38407251238822937, 0.38848981261253357, -0.07458136975765228, 0.03537146374583244, -0.06373587995767593, 0.00891213957220316, -0.435383677482605, -0.022659016773104668, 0.026984864845871925, -0.8674922585487366, -0.013905782252550125, 0.32785764336586, 0.016983335837721825, -0.09075894206762314, -0.20948445796966553, -0.09234704077243805, -0.1112809106707573, -0.7812361717224121, -0.05743502825498581, -0.2277253270149231, 0.03526207432150841, -0.06460705399513245, 0.41216376423835754, -0.1175718754529953, 0.37737470865249634, -0.08645961433649063, -0.079014852643013, -0.15148486196994781, -0.013578241690993309, -0.07638734579086304, -0.12849605083465576, 0.014180817641317844, 0.11419638991355896, 0.3798344135284424, 0.5010203123092651, -0.027252698317170143, -0.32827824354171753, -0.14205098152160645, 0.36860066652297974, -0.08089592307806015, 0.07996466010808945, -0.6238455176353455, 0.02668876200914383, -0.37516409158706665, -0.06271935999393463, -0.11493801325559616, -0.18792499601840973, -0.11920972913503647, -0.22067730128765106, 0.4737505316734314, 0.42492324113845825, 0.03724018484354019, -0.13630782067775726, -0.21227200329303741, -0.07291293889284134, 0.02480645664036274, -0.2902522385120392, -0.21079792082309723, -0.22870293259620667, -0.12322218716144562, 0.03690320998430252, -1.3070622682571411, -0.09149866551160812, 0.4888004660606384, -0.3352857828140259, -0.015772368758916855, -0.2704918384552002, 0.09929665923118591, 0.01779087819159031, -0.00629457226023078, -0.7629578113555908, -0.12103574723005295, 0.07141491025686264, -0.08180886507034302, 0.523082971572876, -0.1682206392288208, -0.17032301425933838, 0.12827564775943756, -0.10180883854627609, -0.13200713694095612, -0.22681835293769836, -0.1627093404531479, 0.0002793580642901361, -0.20779621601104736, -0.1803206503391266, -0.07103289663791656, -0.182608962059021, -0.10499382019042969, -0.1944563388824463, 0.13946524262428284, -0.03794450685381889, -0.15107707679271698, 0.6070330142974854, -0.05261669680476189, -0.17111361026763916, -0.21700751781463623, -0.549958348274231, -0.24225962162017822, -0.0452689491212368, 0.10277989506721497, -0.37056320905685425, -0.21692746877670288, -0.19528406858444214, -0.19817596673965454, -0.10545080155134201, -0.04293831065297127, -0.05912623926997185, -0.2013295441865921, 0.07467188686132431, 0.02508985809981823, -0.15255224704742432, -0.9925365447998047, 0.037138618528842926, -0.9993172287940979, -1.2518514394760132, -0.29685643315315247, -0.09149200469255447, -0.36054450273513794, -0.12040309607982635, -0.17749550938606262, -0.08917509019374847, -0.06067676469683647, 0.2662544846534729, -0.03398005664348602, 0.2393353134393692, -0.10971584171056747, -0.10534627735614777, -0.15384697914123535, 0.006250848062336445, -0.09305281192064285, 0.05621729791164398, -0.28495755791664124, -0.0037686643190681934, 0.060952987521886826, -0.3220342695713043, -0.10011649131774902, 0.4569649398326874, 0.15138857066631317, 0.23567511141300201, -0.25558915734291077, -0.2042354941368103, -0.29731521010398865, -0.06423532217741013, 0.6545889377593994, -0.222076416015625, -0.12178878486156464, -0.15178729593753815, -0.04798604175448418, -0.1369115710258484, -0.3664816915988922, 0.47443729639053345, -0.5047082901000977, 0.08593398332595825, -0.2259567379951477, -0.2030949741601944, 0.613165557384491, -0.22302573919296265, 0.3945247530937195, 0.0014935301151126623, -0.10658348351716995, 0.029452405869960785, -0.7233126163482666, 0.08894488215446472, 0.6139522194862366, 0.004380061756819487, -0.15241879224777222, -0.2698981761932373, -0.022581830620765686, 0.05357546731829643, -0.06887328624725342, -0.17877203226089478, -0.007042716257274151, -1.3162213563919067, -0.1661866307258606, 0.25264787673950195, -0.18104949593544006, 0.003083557588979602, -0.4985600411891937, -0.18164852261543274, -1.1247258186340332, 0.03896540775895119, -0.04695005342364311, 0.960252046585083, 0.0347508080303669, -0.0686517059803009, -0.026661578565835953, 0.007405245676636696, -0.20698873698711395, 0.011424648575484753, 0.00081097666407004, 0.027516309171915054, -0.11644826829433441, -0.30971696972846985, 0.06371917575597763, -0.04930002987384796, -0.07363425195217133, -0.08827795088291168, 0.08972799777984619, -0.012070439755916595, 0.03997228667140007, 0.2719561457633972, -0.2190249115228653, 0.0811670571565628, 0.03711187466979027, -0.05922256410121918, 0.014737389050424099, 0.46829545497894287, -0.07866287231445312, -0.023546850308775902, -0.6539862155914307, 0.010269846767187119, -0.37166130542755127, -0.15035617351531982, 0.12516477704048157, -0.6399961709976196, -0.23472338914871216, -0.05590422824025154, -0.4198598265647888, -0.148291677236557, -0.1604490876197815, 0.009010089561343193, 0.08115136623382568, 0.35973596572875977, -0.0770595446228981, 0.15269123017787933, -0.13088683784008026, -0.07646755874156952, -0.2592693567276001, 0.0067170546390116215, -0.0034047302324324846, 0.04752965271472931, -0.11894828826189041, 0.15372216701507568, 0.46938711404800415, 0.29946669936180115, -0.045435573905706406, -0.311641126871109, 0.09248566627502441, 0.4974772334098816, -0.2179172784090042, -0.013165542855858803, -1.4043364524841309, 0.11663924902677536, -0.36629876494407654, -0.004281777422875166, -0.08693385124206543, -0.17178909480571747, -0.26292702555656433, -0.13162723183631897, -0.35132497549057007, 0.8269206881523132, 0.5085182189941406]","[-0.08921559154987335, -0.07340378314256668, -0.10550227761268616, -0.1304386705160141, -0.09417647868394852, 0.1990906000137329, -0.002776204375550151, -0.08727147430181503, -0.06878568232059479, -0.47193485498428345, -0.09453251212835312, 0.5751276016235352, -0.43140098452568054, -0.13777892291545868, -0.08684986084699631, -0.14685188233852386, -0.1301030069589615, -0.013677253387868404, -0.46593645215034485, -0.09923189133405685, -0.5561822056770325, 0.0, 0.3253672122955322, 0.13640479743480682, -0.09697684645652771, -0.3517387807369232, -0.12374342978000641, -0.5356172919273376, -0.0964837521314621, -0.06676442921161652, 0.3864460289478302, -0.03560370206832886, 0.0, -0.4020964205265045, -0.1949297934770584, 0.0, -0.1673145890235901, -0.19054743647575378, -0.1774890273809433, -0.1419190615415573, 0.27796220779418945, -0.13678765296936035, 0.0, 0.0, -0.6514120697975159, -0.10322748124599457, -0.11499404907226562, -0.10319455713033676, 0.342983603477478, 0.14249984920024872, -0.08872159570455551, -0.1482263207435608, -0.06939847767353058, -0.1511486917734146, -0.1981104463338852, -0.11779726296663284, -0.17815491557121277, -0.43347272276878357, -0.08083797246217728, -0.09662749618291855, -0.07203375548124313, -0.3817161023616791, -0.5202138423919678, -0.09701946377754211, -0.39023301005363464, -0.2442871481180191, -0.15344442427158356, 0.0, -0.17740504443645477, -0.08370707929134369, 0.2260541021823883, -0.2865527868270874, 0.3242517411708832, -0.4093952775001526, 0.03045216016471386, -0.08714088052511215, -0.12494486570358276, -0.08894602954387665, -0.07795954495668411, -0.1236046627163887, -0.1855839639902115, -0.024050461128354073, 0.30887243151664734, -0.15959826111793518, 0.27483198046684265, -0.15449345111846924, 0.15717343986034393, -0.19702352583408356, -0.173418328166008, -0.7815224528312683, -0.11671187728643417, 0.3486402928829193, -0.19624373316764832, -0.33138802647590637, -0.012326846830546856, -0.16978076100349426, -0.29485687613487244, 0.3200233280658722, 0.14831389486789703, -0.3858608901500702]",,,,,,,,,,,,,,,,,,,,,,,,,,,,,,,,,,,,,,,,,,,,,,,,,,,,,,,,,,,,,,,,,,,,,,,,,,,,,,,,,,,,,,,,,,,,,,,,,,,,,,,,,,,,,,,,,,,,,,,,,,,,,,,,,,,,,,,,,,,,,,,,,,,,,,,,,,,,,,,,,,,,,,,,,,,,,,,,,,,,,,,,,,,,,,,,,,,,,,,,,,,,,,,,,,,,,,,,,,,,,,,,,,,,,,,,,,,,,,,,,,,,,,,,,,,,,,,,,,,,,,,,,,,,,,,,,,,,,,,,,,,,,,,,,,,,,,,,,,,,,,,,,,,,,,,,,,,,,,,,,,,,,,,,,,,,,,,,,,,,,,,,,,,,,,,,,,,,,,,,,,,,,,,,,,,,,,,,,,,,,,,,,,,,,,,,,,,,,,,,,,,,,,,,,,,,,,,,,,,,,,,,,,,,,,,,,,,,,,,,,,,,,,,,,,,,,,,,,,,,,,,,,,,,,,,,,,,,,,,,,,,,,,,,,,,,,,,,,,,,,,,,,,,,,,,,,,,,,,,,,,,,,,,,,,,,,,,,,,,,,,,,,,,,,,,,,,,,,,,,,,,,,,,,,,,,,,,,,,,,,,,,,,,,,,,,,,,,,,,,,,,,,,,,,,,,,,,,,,,,,,,,,,,,,,,,,,,,,,,,,,,,,,,,,,,,,,,,,,,,,,,,,,,,,,,,,,,,,,,,,,,,,,,,,,,,,,,,,,,,,,,,,,,,,,,,,,,,,,,,,,,,,,,,,,,,,,,,,,,,,,,,,,,,,,,,,,,,,,,,,,,,,,,,,,,,,,,,,,,,,,,,,,,,,,,,,,,,,,,,,,,,,,,,,,,,,,,,,,,,,,,,,,,,,,,,,,,,,,,,,,,,,,,,,,,,,,,,,,,,,,,,,,,,,,,,,,,,,,,,,,,,,,,,,,,,,,,,,,,,,,,,,,,,,,,,,,,,,,,,,,,,,,,,,,,,,,,,,,,,,,,,,,,,,,,,,,,,,,,,,,,,,,,,,,,,,,,,,,,,,,,,,,,,,,,,,,,,,,,,,,,,,,,,,,,,,,,,,,,,,,,,,,,,,,,,,,,,,,,,,,,,,,,,,,,,,,,,,,,,,,,,,,,,,,,,,,,,,,,,,,,,,,,,,,,,,,,,,,,,,,,,,,,,,,,,,,,,,,,,,,,,,,,,,,,,,,,,,,,,,,,,,,,,,,,,,,,,,,,,,,,,,,,,,,,,,,,,,,,,,,,,,,,,,,,,,,,,,,,,,,,,,,,,,,,,,,,,,,,,,,,,,,,,,,,,,,,,,,,,,,,,,,,,,,,,,,,,,,,,,,,,,,,,,,,,,,,,,,,,,,,,,,,,,,,,,,,,,,,,,,,,,,,,,,,,,,,,,,,,,,,,,,,,,,,,,,,,,,,,,,,,,,,,,,,,,,,,,,,,,,,,,,,,,,,,,,,,,,,,,,,,,,,,,,,,,,,,,,,,,,,,,,,,,,,,,,,,,,,,,,,,,,,,,,,,,,,,,,,,,,,,,,,,,,,,,,,,,,,,,,,,,,,,,,,,,,,,,,,,,,,,,,,,,,,,,,,,,,,,,,,,,,,,,,,,,,,,,,,,,,,,,,,,,,,,,,,,,,,,,,,,,,,,,,,,,,,,,,,,,,,,,,,,,,,,,,,,,,,,,,,,,,,,,,,,,,,,,,,,,,,,,,,,,,,,,,,,,,,,,,,,,,,,,,,,,,,,,,,,,,,,,,,,,,,,,,,,,,,,,,,,,,,,,,,,,,,,,,,,,,,,,,,,,,,,,,,,,,,,,,,,,,,,,,,,,,,,,,,,,,,,,,,,,,,,,,,,,,,,,,,,,,,,,,,,,,,,,,,,,,,,,,,,,,,,,,,,,,,,,,,,,,,,,,,,,,,,,,,,,,,,,,,,,,,,,,,,,,,,,,,,,,,,,,,,,,,,,,,,,,,,,,,,,,,,,,,,,,,,,,,,,,,,,,,,,,,,,,,,,,,,,,,,,,,,,,,,,,,,,,,,,,,,,,,,,,,,,,,,,,,,,,,,,,,,,,,,,,,,,,,,,,,,,,,,,,,,,,,,,,,,,,,,,,,,,,,,,,,,,,,,,,,,,,,,,,,,,,,,,,,,,,,,,,,,,,,,,,,,,,,,,,,,,,,,,,,,,,,,,,,,,,,,,,,,,,,,,,,,,,,,,,,,,,,,,,,,,,,,,,,,,,,,,,,,,,,,,,,,,,,,,,,,,,,,,,,,,,,,,,,,,,,,,,,,,,,,,,,,,,,,,,,,,,,,,,,,,,,,,,,,,,,,,,,,,,,,,,,,,,,,,,,,,,,,,,,,,,,,,,,,,,,,,,,,,,,,,,,,,,,,,,,,,,,,,,,,,,,,,,,,,,,,,,,,,,,,,,,,,,,,,,,,,,,,,,,,,,,,,,,,,,,,,,,,,,,,,,,,,,,,,,,,,,,,,,,,,,,,,,,,,,,,,,,,,,,,,,,,,,,,,,,,,,,,,,,,,,,,,,,,,,,,,,,,,,,,,,,,,,,,,,,,,,,,,,,,,,,,,,,,,,,,,,,,,,,,,,,,,,,,,,,,,,,,,,,,,,,,,,,,,,,,,,,,,,,,,,,,,,,,,,,,,,,,,,,,,,,,,,,,,,,,,,,,,,,,,,,,,,,,,,,,,,,,,,,,,,,,,,,,,,,,,,,,,,,,,,,,,,,,,,,,,,,,,,,,,,,,,,,,,,,,,,,,,,,,,,,,,,,,,,,,,,,,,,,,,,,,,,,,,,,,,,,,,,,,,,,,,,,,,,,,,,,,,,,,,,,,,,,,,,,,,,,,,,,,,,,,,,,,,,,,,,,,,,,,,,,,,,,,,,,,,,,,,,,,,,,,,,,,,,,,,,,,,,,,,,,,,,,,,,,,,,,,,,,,,,,,,,,,,,,,,,,,,,,,,,,,,,,,,,,,,,,,,,,,,,,,,,,,,,,,,,,,,,,,,,,,,,,,,,,,,,,,,,,,,,,,,,,,,,,,,,,,,,,,,,,,,,,,,,,,,,,,,,,,,,,,,,,,,,,,,,,,,,,,,,,,,,,,,,,,,,,,,,,,,,,,,,,,,,,,,,,,,,,,,,,,,,,,,,,,,,,,,,,,,,,,,,,,,,,,,,,,,,,,,,,,,,,,,,,,,,,,,,,,,,,,,,,,,,,,,,,,,,,,,,,,,,,,,,,,,,,,,,,,,,,,,,,,,,,,,,,,,,,,,,,,,,,,,,,,,,,,,,,,,,,,,,,,,,,,,,,,,,,,,,,,,,,,,,,,,,,,,,,,,,,,,,,,,,,,,,,,,,,,,,,,,,,,,,,,,,,,,,,,,,,,,,,,,,,,,,,,,,,,,,,,,,,,,,,,,,,,,,,,,,,,,,,,,,,,,,,,,,,,,,,,,,,,,,,,,,,,,,,,,,,,,,,,,,,,,,,,,,,,,,,,,,,,,,,,,,,,,,,,,,,,,,,,,,,,,,,,,,,,,,,,,,,,,,,,,,,,,,,,,,,,,,,,,,,,,,,,,,,,,,,,,,,,,,,,,,,,,,,,,,,,,,,,,,,,,,,,,,,,,,,,,,,,,,,,,,,,,,,,,,,,,,,,,,,,,,,,,,,,,,,,,,,,,,,,,,,,,,,,,,,,,,,,,,,,,,,,,,,,,,,,,,,,,,,,,,,,,,,,,,,,,,,,,,,,,,,,,,,,,,,,,,,,,,,,,,,,,,,,,,,,,,,,,,,,,,,,,,,,,,,,,,,,,,,,,,,,,,,,,,,,,,,,,,,,,,,,,,,,,,,,,,,,,,,,,,,,,,,,,,,,,,,,,,,,,,,,,,,,,,,,,,,,,,,,,,,,,,,,,,,,,,,,,,,,,,,,,,,,,,,,,,,,,,,,,,,,,,,,,,,,,,,,,,,,,,,,,,,,,,,,,,,,,,,,,,,,,,,,,,,,,,,,,,,,,,,,,,,,,,,,,,,,,,,,,,,,,,,,,,,,,,,,,,,,,,,,,,,,,,,,,,,,,,,,,,,,,,,,,,,,,,,,,,,,,,,,,,,,,,,,,,,,,,,,,,,,,,,,,,,,,,,,,,,,,,,,,,,,,,,,,,,,,,,,,,,,,,,,,,,,,,,,,,,,,,,,,,,,,,,,,,,,,,,,,,,,,,,,,,,,,,,,,,,,,,,,,,,,,,,,,,,,,,,,,,,,,,,,,,,,,,,,,,,,,,,,,,,,,,,,,,,,,,,,,,,,,,,,,,,,,,,,,,,,,,,,,,,,,,,,,,,,,,,,,,,,,,,,,,,,,,,,,,,,,,,,,,,,,,,,,,,,,,,,,,,,,,,,,,,,,,,,,,,,,,,,,,,,,,,,,,,,,,,,,,,,,,,,,,,,,,,,,,,,,,,,,,,,,,,,,,,,,,,,,,,,,,,,,,,,,,,,,,,,,,,,,,,,,,,,,,,,,,,,,,,,,,,,,,,,,,,,,,,,,,,,,,,,,,,,,,,,,,,,,,,,,,,,,,,,,,,,,,,,,,,,,,,,,,,,,,,,,,,,,,,,,,,,,,,,,,,,,,,,,,,,,,,,,,,,,,,,,,,,,,,,,,,,,,,,,,,,,,,,,,,,,,,,,,,,,,,,,,,,,,,,,,,,,,,,,,,,,,,,,,,,,,,,,,,,,,,,,,,,,,,,,,,,,,,,,,,,,,,,,,,,,,,,,,,,,,,,,,,,,,,,,,,,,,,,,,,,,,,,,,,,,,,,,,,,,,,,,,,,,,,,,,,,,,,,,,,,,,,,,,,,,,,,,,,,,,,,,,,,,,,,,,,,,,,,,,,,,,,,,,,,,,,,,,,,,,,,,,,,,,,,,,,,,,,,,,,,,,,,,,,,,,,,,,,,,,,,,,,,,,,,,,,,,,,,,,,,,,,,,,,,,,,,,,,,,,,,,,,,,,,,,,,,,,,,,,,,,,,,,,,,,,,,,,,,,,,,,,,,,,,,,,,,,,,,,,,,,,,,,,,,,,,,,,,,,,,,,,,,,,,,,,,,,,,,,,,,,,,,,,,,,,,,,,,,,,,,,,,,,,,,,,,,,,,,,,,,,,,,,,,,,,,,,,,,,,,,,,,,,,,,,,,,,,,,,,,,,,,,,,,,,,,,,,,,,,,,,,,,,,,,,,,,,,,,,,,,,,,,,,,,,,,,,,,,,,,,,,,,,,,,,,,,,,,,,,,,,,,,,,,,,,,,,,,,,,,,,,,,,,,,,,,,,,,,,,,,,,,,,,,,,,,,,,,,,,,,,,,,,,,,,,,,,,,,,,,,,,,,,,,,,,,,,,,,,,,,,,,,,,,,,,,,,,,,,,,,,,,,,,,,,,,,,,,,,,,,,,,,,,,,,,,,,,,,,,,,,,,,,,,,,,,,,,,,,,,,,,,,,,,,,,,,,,,,,,,,,,,,,,,,,,,,,,,,,,,,,,,,,,,,,,,,,,,,,,,,,,,,,,,,,,,,,,,,,,,,,,,,,,,,,,,,,,,,,,,,,,,,,,,,,,,,,,,,,,,,,,,,,,,,,,,,,,,,,,,,,,,,,,,,,,,,,,,,,,,,,,,,,,,,,,,,,,,,,,,,,,,,,,,,,,,,,,,,,,,,,,,,,,,,,,,,,,,,,,,,,,,,,,,,,,,,,,,,,,,,,,,,,,,,,,,,,,,,,,,,,,,,,,,,,,,,,,,,,,,,,,,,,,,,,,,,,,,,,,,,,,,,,,,,,,,,,,,,,,,,,,,,,,,,,,,,,,,,,,,,,,,,,,,,,,,,,,,,,,,,,,,,,,,,,,,,,,,,,,,,,,,,,,,,,,,,,,,,,,,,,,,,,,,,,,,,,,,,,,,,,,,,,,,,,,,,,,,,,,,,,,,,,,,,,,,,,,,,,,,,,,,,,,,,,,,,,,,,,,,,,,,,,,,,,,,,,,,,,,,,,,,,,,,,,,,,,,,,,,,,,,,,,,,,,,,,,,,,,,,,,,,,,,,,,,,,,,,,,,,,,,,,,,,,,,,,,,,,,,,,,,,,,,,,,,,,,,,,,,,,,,,,,,,,,,,,,,,,,,,,,,,,,,,,,,,,,,,,,,,,,,,,,,,,,,,,,,,,,,,,,,,,,,,,,,,,,,,,,,,,,,,,,,,,,,,,,,,,,,,,,,,,,,,,,,,,,,,,,,,,,,,,,,,,,,,,,,,,,,,,,,,,,,,,,,,,,,,,,,,,,,,,,,,,,,,,,,,,,,,,,,,,,,,,,,,,,,,,,,,,,,,,,,,,,,,,,,,,,,,,,,,,,,,,,,,,,,,,,,,,,,,,,,,,,,,,,,,,,,,,,,,,,,,,,,,,,,,,,,,,,,,,,,,,,,,,,,,,,,,,,,,,,,,,,,,,,,,,,,,,,,,,,,,,,,,,,,,,,,,,,,,,,,,,,,,,,,,,,,,,,,,,,,,,,,,,,,,,,,,,,,,,,,,,,,,,,,,,,,,,,,,,,,,,,,,,,,,,,,,,,,,,,,,,,,,,,,,,,,,,,,,,,,,,,,,,,,,,,,,,,,,,,,,,,,,,,,,,,,,,,,,,,,,,,,,,,,,,,,,,,,,,,,,,,,,,,,,,,,,,,,,,,,,,,,,,,,,,,,,,,,,,,,,,,,,,,,,,,,,,,,,,,,,,,,,,,,,,,,,,,,,,,,,,,,,,,,,,,,,,,,,,,,,,,,,,,,,,,,,,,,,,,,,,,,,,,,,,,,,,,,,,,,,,,,,,,,,,,,,,,,,,,,,,,,,,,,,,,,,,,,,,,,,,,,,,,,,,,,,,,,,,,,,,,,,,,,,,,,,,,,,,,,,,,,,,,,,,,,,,,,,,,,,,,,,,,,,,,,,,,,,,,,,,,,,,,,,,,,,,,,,,,,,,,,,,,,,,,,,,,,,,,,,,,,,,,,,,,,,,,,,,,,,,,,,,,,,,,,,,,,,,,,,,,,,,,,,,,,,,,,,,,,,,,,,,,,,,,,,,,,,,,,,,,,,,,,,,,,,,,,,,,,,,,,,,,,,,,,,,,,,,,,,,,,,,,,,,,,,,,,,,,,,,,,,,,,,,,,,,,,,,,,,,,,,,,,,,,,,,,,,,,,,,,,,,,,,,,,,,,,,,,,,,,,,,,,,,,,,,,,,,,,,,,,,,,,,,,,,,,,,,,,,,,,,,,,,,,,,,,,,,,,,,,,,,,,,,,,,,,,,,,,,,,,,,,,,,,,,,,,,,,,,,,,,,,,,,,,,,,,,,,,,,,,,,,,,,,,,,,,,,,,,,,,,,,,,,,,,,,,,,,,,,,,,,,,,,,,,,,,,,,,,,,,,,,,,,,,,,,,,,,,,,,,,,,,,,,,,,,,,,,,,,,,,,,,,,,,,,,,,,,,,,,,,,,,,,,,,,,,,,,,,,,,,,,,,,,,,,,,,,,,,,,,,,,,,,,,,,,,,,,,,,,,,,,,,,,,,,,,,,,,,,,,,,,,,,,,,,,,,,,,,,,,,,,,,,,,,,,,,,,,,,,,,,,,,,,,,,,,,,,,,,,,,,,,,,,,,,,,,,,,,,,,,,,,,,,,,,,,,,,,,,,,,,,,,,,,,,,,,,,,,,,,,,,,,,,,,,,,,,,,,,,,,,,,,,,,,,,,,,,,,,,,,,,,,,,,,,,,,,,,,,,,,,,,,,,,,,,,,,,,,,,,,,,,,,,,,,,,,,,,,,,,,,,,,,,,,,,,,,,,,,,,,,,,,,,,,,,,,,,,,,,,,,,,,,,,,,,,,,,,,,,,,,,,,,,,,,,,,,,,,,,,,,,,,,,,,,,,,,,,,,,,,,,,,,,,,,,,,,,,,,,,,,,,,,,,,,,,,,,,,,,,,,,,,,,,,,,,,,,,,,,,,,,,,,,,,,,,,,,,,,,,,,,,,,,,,,,,,,,,,,,,,,,,,,,,,,,,,,,,,,,,,,,,,,,,,,,,,,,,,,,,,,,,,,,,,,,,,,,,,,,,,,,,,,,,,,,,,,,,,,,,,,,,,,,,,,,,,,,,,,,,,,,,,,,,,,,,,,,,,,,,,,,,,,,,,,,,,,,,,,,,,,,,,,,,,,,,,,,,,,,,,,,,,,,,,,,,,,,,,,,,,,,,,,,,,,,,,,,,,,,,,,,,,,,,,,,,,,,,,,,,,,,,,,,,,,,,,,,,,,,,,,,,,,,,,,,,,,,,,,,,,,,,,,,,,,,,,,,,,,,,,,,,,,,,,,,,,,,,,,,,,,,,,,,,,,,,,,,,,,,,,,,,,,,,,,,,,,,,,,,,,,,,,,,,,,,,,,,,,,,,,,,,,,,,,,,,,,,,,,,,,,,,,,,,,,,,,,,,,,,,,,,,,,,,,,,,,,,,,,,,,,,,,,,,,,,,,,,,,,,,,,,,,,,,,,,,,,,,,,,,,,,,,,,,,,,,,,,,,,,,,,,,,,,,,,,,,,,,,,,,,,,,,,,,,,,,,,,,,,,,,,,,,,,,,,,,,,,,,,,,,,,,,,,,,,,,,,,,,,,,,,,,,,,,,,,,,,,,,,,,,,,,,,,,,,,,,,,,,,,,,,,,,,,,,,,,,,,,,,,,,,,,,,,,,,,,,,,,,,,,,,,,,,,,,,,,,,,,,,,,,,,,,,,,,,,,,,,,,,,,,,,,,,,,,,,,,,,,,,,,,,,,,,,,,,,,,,,,,,,,,,,,,,,,,,,,,,,,,,,,,,,,,,,,,,,,,,,,,,,,,,,,,,,,,,,,,,,,,,,,,,,,,,,,,,,,,,,,,,,,,,,,,,,,,,,,,,,,,,,,,,,,,,,,,,,,,,,,,,,,,,,,,,,,,,,,,,,,,,,,,,,,,,,,,,,,,,,,,,,,,,,,,,,,,,,,,,,,,,,,,,,,,,,,,,,,,,,,,,,,,,,,,,,,,,,,,,,,,,,,,,,,,,,,,,,,,,,,,,,,,,,,,,,,,,,,,,,,,,,,,,,,,,,,,,,,,,,,,,,,,,,,,,,,,,,,,,,,,,,,,,,,,,,,,,,,,,,,,,,,,,,,,,,,,,,,,,,,,,,,,,,,,,,,,,,,
hidden layewr 2,"[-0.0930168628692627, -0.007192990276962519, -1.3729724884033203, -1.5178617238998413, -0.2932184338569641, 0.005073457956314087, 0.10121455043554306, -0.22136513888835907, 0.064606674015522, -0.05314696207642555, -0.13856391608715057, -0.3660859167575836, -0.5909565687179565, -0.05096636340022087, 0.009929399006068707, 0.09172271937131882, -0.09677102416753769, -0.3382502496242523, -0.2620483636856079, 0.050267294049263, 0.13022151589393616, -1.057170033454895, 0.03505805879831314, -0.11962564289569855, -0.05916052684187889, 0.02664109133183956, 0.13228894770145416, -0.05007847025990486, 0.04622869938611984, -0.49464520812034607, 0.10656911134719849, -0.15765240788459778, 0.11267853528261185, -0.22917403280735016, -0.18660612404346466, -0.14247624576091766, 0.0597253143787384, 0.08337333053350449, -0.24247218668460846, -0.16950586438179016, -0.16912119090557098, -0.6703793406486511, 0.04564492776989937, -0.4261644184589386, -0.11214277148246765, -0.517181932926178, 0.13366754353046417, 0.1565653383731842, 0.1211261972784996, 0.2797418236732483, 0.08270617574453354, -0.08448966592550278, -0.15995262563228607, -0.06211802363395691, 0.0066206310875713825, 0.1586344987154007, -0.1366361379623413, -0.16090713441371918, -0.3032030165195465, 0.018996240571141243, 0.22932766377925873, -0.06182011216878891, -0.5056339502334595, -1.2361772060394287, -0.07070615142583847, -0.7290019989013672, 0.006937663536518812, 0.08684306591749191, -0.21454516053199768, -0.2430107742547989, -0.14057479798793793, -0.06158265471458435, -0.05651549994945526, -0.3132878541946411, -0.4651731550693512, -0.26840993762016296, -0.10222860425710678, 0.4285777807235718, 0.007884270511567593, -1.0574487447738647, -0.4747353792190552, 0.0124628571793437, -0.09748625010251999, -0.29067474603652954, -0.1480516493320465, -0.031449124217033386, -0.06417623907327652, -1.1497730016708374, 0.06404633820056915, -0.17692139744758606, 0.02388165518641472, -0.06413549184799194, -0.5181990265846252, -0.6021912693977356, -1.3897613286972046, -0.06821448355913162, -0.09334800392389297, -0.21073727309703827, -0.1535283923149109, -0.22127656638622284, 0.11420132219791412, 0.12244259566068649, -0.6217592358589172, 0.5806884765625, -0.38956499099731445, -0.1412562131881714, -0.6198403835296631, -0.35547640919685364, -0.21292047202587128, -0.4401077330112457, 0.008851234801113605, 0.5628823637962341, 0.1002398356795311, -1.0120770931243896, -0.19136713445186615, -0.5504643321037292, 0.012201683595776558, 0.0006710373563691974, -0.5356929302215576, -0.1265978366136551, -0.1849154680967331, -0.037174470722675323, -1.3341786861419678, -0.03796795383095741, 0.15705685317516327, 0.08257150650024414, -0.10698895901441574, -0.9512423276901245, -0.039596907794475555, -0.33586713671684265, 0.08450096100568771, -1.2445602416992188, -0.45006030797958374, -0.1507977694272995, 0.24453580379486084, -0.09586649388074875, 0.03305521607398987, 0.011693623848259449, -0.5349395275115967, -0.04268530756235123, 0.3987892270088196, 0.08000379055738449, 0.00559154711663723, -0.40581920742988586, -0.45918306708335876, -0.17211879789829254, -0.03177167475223541, -0.4827987849712372, 0.1539015769958496, -0.1514435112476349, 0.3540797531604767, 0.3167511522769928, -0.3077223598957062, -0.352017343044281, -0.22756411135196686, 0.05511067435145378, 0.12689250707626343, 0.06833386421203613, -0.22748355567455292, 0.06469669193029404, -0.0512976348400116, 0.08411647379398346, -0.07230603694915771, 0.3167704939842224, -0.13913021981716156, 0.0891033262014389, -0.031711287796497345, 0.03203428164124489, -0.6270596981048584, -0.06701242178678513, -0.03795493766665459, -0.07719133794307709, -0.09230145812034607, -0.024000218138098717, -0.04666701704263687, 0.7026106119155884, -0.08222709596157074, -0.20875586569309235, -1.2189515829086304, -0.5523694753646851, -0.07419101148843765, -0.21621213853359222, -0.1457967460155487, -0.7998955249786377, -0.1318482607603073, -0.09885331988334656, -0.045386724174022675, 0.06968045979738235, -0.06552153825759888, -0.003996179439127445, -0.07040465623140335, 0.1679290235042572, 0.08411844074726105, -0.211754709482193, -0.03263396769762039, 0.09582971781492233, -0.05429667606949806, -0.48141634464263916, -0.1630057543516159, 0.2419830858707428, -0.03995193541049957, -0.21188221871852875, 0.15048997104167938, 0.113344706594944, 0.026618164032697678, -0.10329790413379669, -0.09270060062408447, -0.25983062386512756, 0.07217803597450256, 0.0784236341714859, 0.0478750616312027, -0.14191359281539917, -0.13884983956813812, -0.2226645052433014, 0.054145559668540955, -0.13957259058952332, 0.06378361582756042, 0.0680919662117958, -0.11117696762084961, 0.0922444686293602, 0.08794700354337692, -0.17982739210128784, 0.059415146708488464, 0.07577650994062424, -0.14020995795726776, -0.1184481829404831, 0.1263611763715744, 0.05661672726273537, 0.0572480633854866, 0.001988023519515991, -0.07909608632326126, 0.07064992189407349, 0.06436727195978165, -0.024063725024461746, -0.20099838078022003, -0.08057596534490585, 0.005877126008272171, -0.24076856672763824, -0.1563960313796997, 0.090240478515625, -0.1560533046722412, 0.04196405038237572, -0.0023903953842818737, 0.14278154075145721, 0.013636273331940174, 0.04286903142929077, -0.19954857230186462, -0.16429689526557922, -0.1573277711868286, -0.11124393343925476, -0.11628881841897964, 0.16302181780338287, -0.0779469907283783, 0.05729736387729645, 0.13725797832012177, -0.02032901905477047, -0.08037928491830826, -0.2077900469303131, 0.1396510750055313, 0.0279658492654562, 0.0031007411889731884, -0.08030083775520325, -0.15731611847877502, -0.08568743616342545, -0.14996029436588287, -0.18000979721546173, 0.11065684258937836, 0.034026820212602615, -0.1804993897676468, -0.08953194320201874, 0.0120426369830966, 0.02731790579855442, 0.037394214421510696, -0.1174035593867302, -0.06606992334127426, 0.16161078214645386, -0.11169873178005219, -0.4928082823753357, 0.09360870718955994, -0.06127196550369263, -0.05050962418317795, 0.11912237107753754, -0.047713954001665115, -0.09494686126708984, -0.09840824455022812, 0.11409394443035126, -0.15689240396022797, -0.12404105812311172, -0.13260620832443237, 0.190871924161911, -0.0020450777374207973, 0.022592434659600258, 0.005293988157063723, 0.09463763236999512, -0.04081600904464722, -0.11859443783760071, -0.0058494387194514275, 0.0717637836933136, -0.061351366341114044, -0.027961280196905136, -0.44114208221435547, 0.10801030695438385, -1.2129312753677368, 0.5723146200180054, -1.2107704877853394, -0.15911635756492615, -3.118387222290039, -0.2526477873325348, -2.583169937133789, -0.7199710607528687, -0.1605636477470398, -2.455707311630249, -1.0495249032974243, 0.7311800718307495, -2.291665554046631, -0.06314854323863983, -0.235982283949852, -0.5200598835945129, -1.9208542108535767, -0.989767849445343, 0.04584735631942749, -0.8225066065788269, -1.3287612199783325, -2.162597894668579, -0.08471406251192093, -0.20819328725337982, -0.1689620167016983, -1.3315752744674683, -0.5395508408546448, -6.83305549621582, -2.0850682258605957, -0.2046847939491272, -6.670020580291748, -0.05686349421739578, -0.12747536599636078, -0.1299331933259964, 0.1351165622472763, 0.034681592136621475, -0.6740175485610962, -0.7184522747993469, -0.5487293601036072, -1.0300524234771729, 0.12587735056877136, -0.46836087107658386, -1.3358622789382935, -0.3664584755897522, 0.006791628897190094, -2.799781560897827, -0.3557814657688141, -0.32805734872817993, -2.7952911853790283, 0.13091711699962616, -1.5284819602966309, -1.7400521039962769, -2.2655370235443115, -0.01284882239997387, -0.07024084776639938, 0.046593453735113144, -0.39433184266090393, -0.11995330452919006, -0.8155524134635925, -0.22105295956134796, -1.4843945503234863, -2.4996750354766846, 0.13958962261676788, 0.3556613326072693, 0.5857284665107727, -1.260972023010254, -1.1079686880111694, -1.0289841890335083, -0.25534531474113464, -0.19978128373622894, -0.48692724108695984, -0.3820021152496338, -0.30949145555496216, -1.940065622329712, -0.11819662153720856, 0.09202944487333298, -0.5985023975372314, 0.27283820509910583, -1.1189697980880737, -0.657025158405304, -0.0474926121532917, 1.017930269241333, -0.8062506318092346, -0.27476218342781067, -0.1274508237838745, -1.4964237213134766, 0.04590408876538277, -0.3474929630756378, 0.008501272648572922, -0.14223116636276245, -0.3869142234325409, -0.29350805282592773, 0.14031408727169037, -2.309217929840088, -0.06864618510007858, -0.9867181181907654, -0.06575778126716614, -0.9177454710006714, -0.049848832190036774, 0.0125371553003788, 0.06169603765010834, -0.07077484577894211, 0.18755804002285004, 0.14599546790122986, -0.02206428162753582, -0.8458664417266846, -0.17298313975334167, -0.01889079064130783, -0.028075622394680977, -0.12567199766635895, -0.011578836478292942, -0.4147827923297882, 0.12616507709026337, 0.11765588074922562, -0.05109022557735443, -0.10791702568531036, 0.12558716535568237, 0.13932761549949646, 0.05627550929784775, -0.15939971804618835, 0.08618897944688797, 0.14951586723327637, 0.13981035351753235, 0.021652402356266975, -0.029252303764224052, 0.053625158965587616, 0.057310931384563446, 0.13379521667957306, 0.08591116964817047, -0.14970332384109497, -0.313977986574173, -0.09169691801071167, -0.08088325709104538, 0.038545019924640656, -0.11747941374778748, -0.035703834146261215, -0.11784414201974869, -0.11172053962945938, 0.06691776216030121, -0.18940815329551697, 0.1186942607164383, 0.10367222875356674, -0.05267457291483879, -0.06468362361192703, 0.09156103432178497, -0.24275198578834534, 0.1442398577928543, 0.044236958026885986, -0.014088503085076809, -0.025179419666528702, -0.025855237618088722, 0.04316554218530655, 0.026186706498265266, 0.046432238072156906, 0.006878331303596497, -0.06045236438512802, 0.08811664581298828, -0.14346344769001007, -0.6008690595626831, -0.09205460548400879, 0.09947184473276138, 0.06162180379033089, 0.08557160198688507, -0.19625093042850494, -0.06003761291503906, -0.033163923770189285, -0.02363923192024231, -0.014674137346446514, 0.12884806096553802, 0.0058411420322954655, 0.11078675836324692, 0.1488611400127411, -0.04697960615158081, 0.012927641160786152, -0.01583770290017128, -0.41912224888801575, -0.062468983232975006, 0.09734470397233963, -0.05262334272265434, 0.047536421567201614, 0.031939513981342316, -0.04126225784420967, 0.028416208922863007, -0.19946949183940887, -0.19837969541549683, -0.09502780437469482, 0.14062778651714325, 0.09629280120134354, 0.12841279804706573, -0.02441028133034706, 0.03737360239028931, -0.11857344210147858, 0.018919261172413826, -0.13155746459960938, -0.02281166799366474, 0.0936603993177414, -0.0947122797369957, -0.12654191255569458, -1.0563695430755615, -0.04294060543179512, -4.184911727905273, -0.6765350103378296, -0.8990569710731506, 0.017469728365540504, 0.08588317781686783, -0.3122505247592926, -2.0589773654937744, -0.056232210248708725, -0.10087331384420395, 0.6818690896034241, -7.699553966522217, 0.8442319631576538, -0.18804126977920532, -0.32334867119789124, 0.06338560581207275, -1.0522592067718506, -1.0095871686935425, 1.0825952291488647, 0.003456623526290059, -1.7918870449066162, 2.940284490585327, -0.38587823510169983, -0.15707913041114807, 0.07075411826372147, 0.1102682575583458, -0.15159428119659424, -0.19856397807598114, 0.4137859344482422, 0.01610521413385868, -0.30905187129974365, 0.05705801025032997, -0.5230655074119568, -0.39486515522003174, -0.056093811988830566, -0.17635197937488556, -0.17688487470149994, -0.9976133108139038, -0.13609659671783447, -1.7102633714675903, -1.9439983367919922, -0.4032016396522522, 0.2067634016275406, -0.12386403977870941, -0.4877237379550934, -0.11247625946998596, 0.702119767665863, 0.053490716964006424, -0.3139537572860718, -2.0065701007843018, -0.32138609886169434, 0.5797311663627625, 0.09286265820264816, -1.456628441810608, 0.06363588571548462, -0.23828119039535522, -0.016575736925005913, -0.498945027589798, -0.09638018161058426, 1.4797890186309814, -0.18735507130622864, -1.6952054500579834, -2.9141108989715576, -0.08095953613519669, -2.7396492958068848, 0.6939822435379028, -0.712867259979248, -0.07360240072011948, 0.12393958121538162, -0.4727294147014618, 0.09249091148376465, -0.44288915395736694, -0.4532270133495331, -0.3792458474636078, 0.19054335355758667, 0.03966480493545532, 0.9774026274681091, 0.08894599229097366, 1.5552542209625244, -2.5906524658203125, 0.4064216911792755, 0.8890230059623718, -2.92580509185791, 0.036428164690732956, 0.12933982908725739, 0.9524716138839722, -1.206931471824646, 0.09281610697507858, -1.3191449642181396, -0.08724349737167358, 0.10892131179571152, -0.5726556181907654, -1.067186951637268, -0.34484100341796875, -0.3294128477573395, 0.07259232550859451, -2.15375018119812, 0.13632513582706451, -5.913819789886475, -0.157530277967453, 0.04173968732357025, 0.06512196362018585, 0.04763365164399147, 0.1068938747048378, 0.07312923669815063, 0.07896946370601654, -0.1598554253578186, -0.1487976461648941, 0.11646747589111328, -0.17974033951759338, -0.09391864389181137, -0.0888964831829071, 0.14102795720100403, -0.06233492121100426, -0.18371079862117767, -0.1502639800310135, 0.11800874024629593, 0.03898047283291817, 0.043258748948574066, 0.11707603931427002, -0.15025585889816284, -0.1647062599658966, 0.16114310920238495, -0.1690257042646408, 0.10023350268602371, -0.00875022355467081, 0.06855686008930206, -0.14061668515205383, -0.11741507798433304, -0.023962069302797318, -0.07335546612739563, 0.018577799201011658, 0.05202298238873482, 0.13764171302318573, 0.1347000002861023, -0.08406056463718414, -0.2163294553756714, 0.13279515504837036, 0.005412820726633072, -0.059197116643190384, -0.028044240549206734, -0.00498622190207243, -0.1461811661720276, 0.12968453764915466, 0.1415959745645523, 0.11735120415687561, 0.15281052887439728, -0.15148961544036865, 0.00988688413053751, -3.570417538867332e-05, -0.13404983282089233, -0.006618152838200331, 0.07489603012800217, -0.026833312585949898, 0.11434517800807953, 0.1250435709953308, 0.036986932158470154, 0.07885918766260147, 0.16942355036735535, -0.054169654846191406, 0.15719196200370789, -0.13124240934848785, -0.15652549266815186, 0.0162029005587101, 0.1425521820783615, 0.11388067901134491, 0.12803277373313904, -0.09714240580797195, -0.13303649425506592, 0.08130837231874466, 0.012044638395309448, -0.0905667170882225, -0.0854521244764328, 0.14464016258716583, 0.1161210760474205, -0.08610063791275024, 0.14124995470046997, 0.08648703247308731, 0.16565358638763428, 0.0036587805952876806, -0.0077288453467190266, -0.1339103728532791, 0.09783893078565598, -0.06590881943702698, -0.018038451671600342, -0.16168835759162903, 0.12265589833259583, -0.13175703585147858, -0.017567286267876625, -0.04102620854973793, -0.01177370548248291, -0.12246708571910858, -0.15507881343364716, 0.1254660189151764, 0.13700810074806213, 0.167881578207016, -0.11088141798973083, -0.12858231365680695, -0.06596206873655319, 0.27059218287467957, 0.0898701623082161, -0.2384040653705597, 0.4805639386177063, 0.3536248207092285, -0.1532869040966034, 0.14548176527023315, 0.8123695254325867, 0.1532822698354721, -0.4795053005218506, -0.029793212190270424, -0.008957769721746445, 0.7833168506622314, 0.059411339461803436, 0.2442532777786255, 0.03774908930063248, 0.045097749680280685, 0.08121258020401001, -0.24375800788402557, -0.09707339853048325, -0.02844115160405636, 0.2879975140094757, -0.14512857794761658, 0.03693272918462753, -0.1090676486492157, -0.151642844080925, 0.02038394846022129, -0.38084331154823303, 0.1001235842704773, -0.21746844053268433, 0.2746475636959076, -0.7621812224388123, 0.084170401096344, -0.06595106422901154, 0.2428303211927414, 0.10597832500934601, -0.006412044167518616, -0.024020154029130936, 0.2250697761774063, -0.012273752130568027, 0.394522100687027, -0.1982327550649643, -0.21760475635528564, 0.04482616111636162, 0.1956198513507843, -0.03775361552834511, 0.1829453706741333, 0.16545528173446655, 0.10883975774049759, -0.32692283391952515, 0.5138371586799622, 0.3456241190433502, -0.017180047929286957, 0.2865930199623108, -0.4003259539604187, 0.08225733786821365, -0.07816776633262634, 0.16510635614395142, 0.10583602637052536, -0.1286071538925171, -0.3556971848011017, 0.16084711253643036, 0.07908767461776733, -0.27137601375579834, -0.17555201053619385, 0.24183903634548187, -0.3283112049102783, -0.14503173530101776, 0.21753397583961487, 0.20922629535198212, 0.05848473310470581, -0.143366739153862, -0.05837809666991234, -0.02577732503414154, -0.05902416259050369, 0.03550001606345177, 0.1593872606754303, -0.5471414923667908, 0.06504428386688232, 0.42970356345176697, 0.40008506178855896, 0.26207050681114197, 0.18511725962162018, -0.014171095564961433, -0.09599371254444122, -0.0482562780380249, -0.058514878153800964, 0.37483111023902893, -0.09769918024539948, -0.5592554807662964, -0.05567118525505066, -0.00505867600440979, -0.014781343750655651, 0.23483914136886597, 0.0786004364490509, -0.09912563115358353, -0.0009000171558000147, 0.03571416065096855, -0.15243470668792725, -0.008045420050621033, 0.06584382057189941, -0.09164831042289734, -0.026913246139883995, 0.038983553647994995, -0.03522208333015442, -0.19856731593608856, -0.0374339297413826, -0.0773928090929985, -0.10081936419010162, -0.09915954619646072, -0.2078792154788971, 0.1129266545176506, -0.05038930103182793, 0.1429332047700882, 0.10421893745660782, 0.08787442743778229, 0.16165435314178467, -0.09114301949739456, 0.0029660991858690977, 0.15073899924755096, -0.03936018794775009, 0.17789572477340698, -0.058912958949804306, 0.09042578190565109, -0.07630328834056854, -0.07759445160627365, 0.04611446335911751, 0.03442717716097832, 0.08835683017969131, -0.21445871889591217, 0.06180793419480324, -0.11582580953836441, 0.041515052318573, 0.043192096054553986, 0.0744381695985794, -0.20724967122077942, -0.08493444323539734, -0.018132789060473442, -0.11356209218502045, -0.12113938480615616, 0.0884864330291748, -0.11356596648693085, -0.1457444578409195, 0.05632815137505531, -0.01312889251857996, 0.1244988739490509, -0.1544428914785385, -0.060074154287576675, 0.0188109390437603, -0.13642050325870514, 0.02681690827012062, -0.10982835292816162, 0.005266867112368345, -0.1437172144651413, -0.06441676616668701, 0.01621607504785061, 0.0039886669255793095, -0.06512538343667984, 0.023320551961660385, -0.0570349246263504, 0.14888016879558563, 0.14744597673416138, 0.037936270236968994, -0.20362716913223267, 0.14835745096206665, 0.038290299475193024, 0.12853224575519562, 0.17758473753929138, 0.18273168802261353, 0.10946445167064667, 0.0413164459168911, -0.032224830240011215, -0.11265002936124802, 0.03830098360776901, -0.019002029672265053, -0.18293577432632446, -0.15263384580612183, 0.11206940561532974, -0.03367282450199127, 0.01544453576207161, 0.06177164241671562, 0.001273037283681333, 0.08677881211042404, -0.09633882343769073, 0.06028367951512337, 0.09203992038965225, 0.11571726202964783, 0.037050142884254456, 0.03526340425014496, -0.006692901719361544, -0.14272183179855347, -0.03436778485774994, -0.06429515779018402, -0.09017102420330048, -0.1275806576013565, -0.05657501518726349, -0.049465473741292953, 0.11210654675960541, 0.15193897485733032, 0.0692201778292656, 0.1068437248468399, -0.02170918695628643, -0.544160008430481, 0.22419224679470062, -0.6562826633453369, -0.18438412249088287, 0.00469582574442029, -0.4142765998840332, -5.306907653808594, 0.3637058138847351, -0.21032410860061646, -0.6895850300788879, 0.33990487456321716, -0.8510367274284363, 0.10522328317165375, -0.2388080209493637, -0.1590082198381424, 0.2465173602104187, -0.12641111016273499, -0.7690754532814026, -0.1831256002187729, -1.5168362855911255, -1.544165849685669, 0.47129175066947937, 0.016027793288230896, -0.14947934448719025, 0.00794917531311512, -0.22190119326114655, -0.10080818831920624, 0.2642737329006195, -0.09449407458305359, -1.392615556716919, 0.12497617304325104, 0.11693309247493744, -0.5160247087478638, -0.045486319810152054, -0.11107713729143143, -0.12058740109205246, -0.16119319200515747, -0.09286054223775864, -5.019129753112793, -1.4352846145629883, 0.43626904487609863, 0.7180867195129395, -0.2761167287826538, 0.17180974781513214, -0.19533486664295197, -0.23852801322937012, -0.024073060601949692, 0.1958102285861969, 1.021932601928711, -1.4217851161956787, -0.2387295663356781, -0.3376835286617279, 0.29197579622268677, -0.010552783496677876, 0.012238792143762112, 0.04829714819788933, -0.042304281145334244, -0.11341948807239532, 0.29596060514450073, -0.016971172764897346, -0.6780535578727722, -0.692773699760437, -0.035454362630844116, -0.10326981544494629, -1.0133775472640991, -0.435418039560318, -0.39377298951148987, 0.8286651372909546, -0.06612910330295563, -0.15400491654872894, 0.0116039477288723, -0.18004071712493896, -0.07337336987257004, 0.512482225894928, -0.015662893652915955, -1.2781476974487305, 0.027571525424718857, 0.7451815605163574, -0.37460705637931824, 0.6038416028022766, 0.2081373929977417, -0.6278707981109619, -0.0756341740489006, -0.010441961698234081, 0.3724026679992676, -0.6011566519737244, -0.14079006016254425, -0.6668675541877747, -0.1118483692407608, -0.18276812136173248, 0.14542840421199799, -0.0668971911072731, -0.0485355369746685, 0.34406283497810364, -0.14129221439361572, 0.36372166872024536, 0.09757517278194427, -0.8115917444229126, -0.07423843443393707, -0.14034633338451385, -0.06956928968429565, 0.03649207949638367, -0.11086248606443405, 0.08905606716871262, -0.15138758718967438, 0.18665023148059845, 0.12444252520799637, -0.11001253873109818, -0.033674824982881546, 0.07211537659168243, -0.0716782659292221, 0.04363950341939926, 0.000513311882968992, -0.0581115260720253, 0.10553482174873352, -0.05019918084144592, 0.18022681772708893, 0.08785795420408249, -0.17889288067817688, 0.14094406366348267, -0.15708650648593903, -0.005865979474037886, -0.09294348210096359, -0.08338014036417007, 0.116317018866539, -0.05377107858657837, 0.09618434309959412, 0.113151416182518, 0.15871436893939972, 0.041375964879989624, -0.10996606945991516, 0.12263590842485428, 0.035058971494436264, -0.11816075444221497, -0.14110325276851654, 0.061902403831481934, -0.11944622546434402, -0.14976859092712402, -0.04768304526805878, -0.0371382012963295, -0.07076672464609146, 0.1472068876028061, 0.11038784682750702, -0.12443381547927856, -0.001254400471225381, -0.15975190699100494, -0.144759863615036, -0.06665311753749847, -0.08115233480930328, -0.05686688423156738, 0.07196969538927078, 0.03348131477832794, 0.16313329339027405, 0.03937888145446777, -0.01871541142463684, -0.16047725081443787, 0.1703440099954605, 0.09705498814582825, 0.031518399715423584, -0.009595699608325958, 0.11145029962062836, -0.1435529738664627, -0.1944519579410553, 0.0940803661942482, 0.1112217903137207, -0.010604457929730415, 0.033583905547857285, -0.017774924635887146, 0.09408668428659439, 0.03159354627132416, -0.08426755666732788, -0.1016649678349495, 0.000332349183736369, 0.07312134653329849, -0.053046222776174545, -0.009499125182628632, 0.09120288491249084, -0.034626226872205734, -0.07721628993749619, 0.12831129133701324, 0.05128804221749306, 0.14861494302749634, 0.08090692013502121, 0.03915061429142952, -0.16603924334049225, -0.08589161932468414, 0.005930021870881319, -0.023836571723222733, -0.13399054110050201, -0.04897518828511238, -0.05125419795513153, 0.000891518488060683, -0.08461097627878189, 0.016655633226037025, 0.07295478880405426, -0.12409241497516632, -0.10776068270206451, 0.037528689950704575, 0.40127459168434143, -0.19687508046627045, -0.07867281883955002, 0.3849616050720215, 0.1949644684791565, 0.09075159579515457, -0.10404723882675171, -0.6866665482521057, 1.2211958169937134, 0.20714843273162842, 0.08499845117330551, 0.3656300902366638, 0.6626737713813782, 0.3158697783946991, -0.07723502069711685, -0.30801913142204285, -0.07787709683179855, 0.2643848955631256, 0.31178534030914307, 0.07896915823221207, -0.20564818382263184, 0.07721319049596786, -1.1794910430908203, 0.4296523332595825, -0.09022354334592819, -0.16609711945056915, -0.11305442452430725, -0.2160017192363739, 0.12967847287654877, -17.824968338012695, 0.187940314412117, -2.263707399368286, 0.07751413434743881, -0.1595163494348526, -0.026060381904244423, -0.2857402265071869, 0.07354085147380829, -0.01739196479320526, -0.9309330582618713, -0.06516490876674652, -0.26542574167251587, 0.4685644209384918, -0.9171777367591858, -0.5545105934143066, 0.5193211436271667, -0.25156670808792114, -0.13473810255527496, 0.16873027384281158, -0.11070229113101959, -9.668038368225098, 0.5073987245559692, 0.6222318410873413, 0.2401919662952423, -2.1089158058166504, 2.321896553039551, -0.08520174771547318, 0.026973528787493706, -0.023911336436867714, -0.5743954181671143, 0.004223973024636507, 0.13846156001091003, -0.1485907882452011, -1.2904233932495117, 0.11493036150932312, 0.054702144116163254, 0.9339703917503357, -0.28718286752700806, 0.7728241086006165, -0.2525964081287384, -1.1204928159713745, -0.12564608454704285, -0.14396630227565765, 0.1415485441684723, -0.28349238634109497, -0.15432371199131012, -2.0034942626953125, -0.17264461517333984, 0.004658405669033527, -1.039205551147461, -1.8744845390319824, 0.3914082944393158, 0.03414135426282883, 0.4839734733104706, -1.2096378803253174, -0.08071119338274002, -0.5280228853225708, -0.2817075848579407, -0.5595389008522034, -0.017827395349740982, -0.170871764421463, -0.0824429839849472, -0.01369503140449524, -0.12438247352838516, -0.01099352166056633, -0.09266863018274307, -1.1800284385681152, -0.04442087933421135, 0.3271995186805725, -0.11339099705219269, 0.56876540184021, -1.3165113925933838, 0.01669713295996189, -1.4541549682617188, 1.163645625114441, -0.17588356137275696, -0.17780043184757233, -0.363659143447876, -8.69293212890625, -0.15582740306854248, -0.3469483256340027, 0.05079369992017746, -2.114457845687866, -1.7722525596618652, -0.7913858890533447, -0.36641600728034973, -0.6677451729774475, -0.047474466264247894, -0.5799287557601929, -0.48147910833358765, -0.7511438131332397, 0.10692917555570602, -5.375126838684082, -0.41079598665237427, -1.351180076599121, -0.09256884455680847, -0.3224712908267975, -0.012913553044199944, -0.2543890178203583, -0.21260333061218262, -0.27116304636001587, -0.5700258016586304, 0.5138121843338013, -1.0511418581008911, 0.03340256214141846, -0.2714914381504059, -0.047794364392757416, -0.17476493120193481, 0.011635731905698776, -0.9294132590293884, 0.09846458584070206, -6.240008354187012, -2.48309588432312, 0.11345715820789337, 0.9369792342185974, 1.516509771347046, 0.08401192724704742, -0.049402009695768356, -0.4400697350502014, -0.24061352014541626, 1.3462694883346558, 1.6698269844055176, -0.03455101326107979, -0.47289684414863586, 1.7290985584259033, -1.3371567726135254, -0.12936119735240936, -0.031221596524119377, -0.22539125382900238, 0.17611730098724365, -0.08695140480995178, -1.4471789598464966, -0.1483405977487564, 0.07192010432481766, -0.40835487842559814, 0.05138396844267845, 0.008177053183317184, -0.2618792951107025, -1.047218680381775, -0.22195248305797577, -0.8412456512451172, -0.054781630635261536, -0.15250518918037415, -0.08548857271671295, -0.14521388709545135, -0.044992104172706604, 1.4352257251739502, -0.16585402190685272, 0.49246203899383545, -0.723903238773346, 0.23905958235263824, -0.0008999767014756799, -0.30960533022880554, -2.339372158050537, -2.1411080360412598, -0.21629171073436737, -0.05777137726545334, -1.0641496181488037, 0.703216552734375, -0.05341921001672745, -0.06632518768310547, 0.12079647183418274, -0.05357532203197479, -0.0650877133011818, -0.031280700117349625, -0.23800237476825714, -0.3472370505332947, 0.016037171706557274, -7.089339256286621, 0.025232553482055664, -19.902986526489258, -0.12074725329875946, -0.022695418447256088, 0.009456552565097809, -0.016609424725174904, 0.11213584244251251, 0.019708016887307167, 0.1337689608335495, -0.4403815269470215, 0.14378556609153748, -0.15537993609905243, 0.09846104681491852, 0.13941892981529236, -0.13059654831886292, -0.049784038215875626, -0.1340002566576004, 0.059515032917261124, 0.16138754785060883, 0.029852937906980515, 0.038184043020009995, 0.15154598653316498, -0.11700819432735443, -0.07964984327554703, 0.0546928308904171, -0.06329764425754547, -0.1501728594303131, 0.11047598719596863, -0.073014035820961, -0.13776443898677826, -0.1849045306444168, 0.15650612115859985, 0.033709846436977386, -0.012006384320557117, 0.037284184247255325, 0.009784170426428318, 0.10107973217964172, -0.18439801037311554, -0.14200431108474731, -0.03630870208144188, -0.004249037243425846, -0.05330274626612663, 0.15456867218017578, 0.020920805633068085, 0.03416426107287407, -0.17401406168937683, 0.06241115182638168, 0.11051512509584427, -0.16001401841640472, -0.10569177567958832, 0.15385887026786804, -0.217953160405159, -0.05074019730091095, -0.11828700453042984, 0.09331686049699783, -0.16413713991641998, 0.06338562816381454, 0.02442661114037037, -0.04561154916882515, -0.13259530067443848, -0.1482083648443222, -0.08478352427482605, 0.0363495871424675, -0.07266660779714584, 0.10210475325584412, 0.054158903658390045, 0.010993162170052528, -0.11847000569105148, -0.09754741936922073, 0.06472130119800568, 0.1232583150267601, -0.04109958931803703, 0.16186092793941498, 0.06473236531019211, 0.11218490451574326, -0.09310723096132278, -0.08319682627916336, 0.06768359988927841, -0.03464169800281525, -0.14603093266487122, -0.07582466304302216, 0.007243205327540636, -0.05139251425862312, -0.06404047459363937, -0.05605391040444374, -0.03645413741469383, 0.01116879191249609, 0.1371423453092575, -0.012606299482285976, 0.18775051832199097, 0.0384480282664299, 0.04427026957273483, -0.17033402621746063, -0.03664487972855568, -0.05027453228831291, 0.04143379256129265, -0.10574455559253693, -0.12720592319965363, -0.11686230450868607, 0.09435050934553146, 0.1561359465122223, 0.07234080880880356, -0.19228453934192657, -0.06248018145561218, -0.052277691662311554, 0.10319995135068893, -0.04580913484096527, -0.1520407795906067, -0.09717971086502075, -0.21228930354118347, -0.04343796148896217, 0.019496265798807144, -0.15086929500102997, -0.01430117804557085, -0.1692039519548416, 0.06011318787932396, 0.11851426213979721, -0.0030316212214529514, -0.0935690850019455, -0.15143202245235443, 0.08484631776809692, 0.09166374802589417, 0.12936833500862122, 0.04540061950683594, -0.19377778470516205, 0.07320918142795563, 0.10274797677993774, 0.006447246298193932, -0.025798242539167404, -0.06693285703659058, 0.019048044458031654, 0.16988107562065125, 0.030704693868756294, -0.10615255683660507, 0.14027844369411469, 0.06170249357819557, -0.19291357696056366, -0.07033325731754303, -0.12474623322486877, -0.1340041309595108, -0.11725475639104843, -0.030403440818190575, 0.005896633956581354, -0.08760188519954681, -0.030207810923457146, -0.013437431305646896, -0.07111170142889023, -0.10863058269023895, 0.052629489451646805, 0.019776884466409683, -0.032296281307935715, 0.003294180380180478, -0.028632167726755142, -0.07908075302839279, 0.177759051322937, 0.047295697033405304, 0.1530751883983612, 0.1467827409505844, 0.050720348954200745, 0.14724871516227722, 0.06706681847572327, -0.15529417991638184, -0.27328479290008545, 0.057318925857543945, -0.13764244318008423, 0.1750279814004898, -0.14847221970558167, -0.06815244257450104, -0.12265730649232864, -0.10409030318260193, -0.2811791002750397, 0.10077807307243347, -0.1486472636461258, 0.07696406543254852, 0.0299703236669302, 0.089234359562397, 0.08355832099914551, -0.10524968802928925, -0.12498718500137329, 0.07078614830970764, -0.11001006513834, -0.14288119971752167, -0.15024791657924652, -0.15702848136425018, 0.09868369251489639, 0.045873045921325684, -0.1693839579820633, 0.1527041494846344, -0.13183821737766266, 0.05335339531302452, -0.10904207825660706, 0.15306596457958221, 0.12715108692646027, 0.009232759475708008, 0.09392614662647247, 0.1685878485441208, -0.12012931704521179, -0.08962283283472061, 0.056851595640182495, -0.022531626746058464, -0.009144604206085205, 0.026575932279229164, -0.1942671239376068, 0.06356120854616165, 0.044856783002614975, 0.02949122153222561, -0.10163211077451706, 0.06880567222833633, 0.07638576626777649, -0.04122648015618324, -0.10822615772485733, -0.01465645618736744, -0.04310807213187218, 0.20498910546302795, -0.06637751311063766, -0.18716426193714142, 0.023794399574398994, -0.08484029024839401, 0.003165751462802291, -0.10850907117128372, 0.060188379138708115, 0.14584557712078094, -0.19713231921195984, 0.04686581715941429, 0.13716894388198853, -0.036601413041353226, -0.14907938241958618, -0.010230688378214836, -0.17095156013965607, -0.089511439204216, 0.0766356885433197, 0.14363259077072144, -0.01177158486098051, -0.19920751452445984, 0.0613004639744758",,,,,,,,,,,,,,,,,,,,,,,,,,,,,,,,,,,,,,,,,,,,,,,,,,,,,,,,,,,,,,,,,,,,,,,,,,,,,,,,,,,,,,,,,,,,,,,,,,,,,,,,,,,,,,,,,,,,,,,,,,,,,,,,,,,,,,,,,,,,,,,,,,,,,,,,,,,,,,,,,,,,,,,,,,,,,,,,,,,,,,,,,,,,,,,,,,,,,,,,,,,,,,,,,,,,,,,,,,,,,,,,,,,,,,,,,,,,,,,,,,,,,,,,,,,,,,,,,,,,,,,,,,,,,,,,,,,,,,,,,,,,,,,,,,,,,,,,,,,,,,,,,,,,,,,,,,,,,,,,,,,,,,,,,,,,,,,,,,,,,,,,,,,,,,,,,,,,,,,,,,,,,,,,,,,,,,,,,,,,,,,,,,,,,,,,,,,,,,,,,,,,,,,,,,,,,,,,,,,,,,,,,,,,,,,,,,,,,,,,,,,,,,,,,,,,,,,,,,,,,,,,,,,,,,,,,,,,,,,,,,,,,,,,,,,,,,,,,,,,,,,,,,,,,,,,,,,,,,,,,,,,,,,,,,,,,,,,,,,,,,,,,,,,,,,,,,,,,,,,,,,,,,,,,,,,,,,,,,,,,,,,,,,,,,,,,,,,,,,,,,,,,,,,,,,,,,,,,,,,,,,,,,,,,,,,,,,,,,,,,,,,,,,,,,,,,,,,,,,,,,,,,,,,,,,,,,,,,,,,,,,,,,,,,,,,,,,,,,,,,,,,,,,,,,,,,,,,,,,,,,,,,,,,,,,,,,,,,,,,,,,,,,,,,,,,,,,,,,,,,,,,,,,,,,,,,,,,,,,,,,,,,,,,,,,,,,,,,,,,,,,,,,,,,,,,,,,,,,,,,,,,,,,,,,,,,,,,,,,,,,,,,,,,,,,,,,,,,,,,,,,,,,,,,,,,,,,,,,,,,,,,,,,,,,,,,,,,,,,,,,,,,,,,,,,,,,,,,,,,,,,,,,,,,,,,,,,,,,,,,,,,,,,,,,,,,,,,,,,,,,,,,,,,,,,,,,,,,,,,,,,,,,,,,,,,,,,,,,,,,,,,,,,,,,,,,,,,,,,,,,,,,,,,,,,,,,,,,,,,,,,,,,,,,,,,,,,,,,,,,,,,,,,,,,,,,,,,,,,,,,,,,,,,,,,,,,,,,,,,,,,,,,,,,,,,,,,,,,,,,,,,,,,,,,,,,,,,,,,,,,,,,,,,,,,,,,,,,,,,,,,,,,,,,,,,,,,,,,,,,,,,,,,,,,,,,,,,,,,,,,,,,,,,,,,,,,,,,,,,,,,,,,,,,,,,,,,,,,,,,,,,,,,,,,,,,,,,,,,,,,,,,,,,,,,,,,,,,,,,,,,,,,,,,,,,,,,,,,,,,,,,,,,,,,,,,,,,,,,,,,,,,,,,,,,,,,,,,,,,,,,,,,,,,,,,,,,,,,,,,,,,,,,,,,,,,,,,,,,,,,,,,,,,,,,,,,,,,,,,,,,,,,,,,,,,,,,,,,,,,,,,,,,,,,,,,,,,,,,,,,,,,,,,,,,,,,,,,,,,,,,,,,,,,,,,,,,,,,,,,,,,,,,,,,,,,,,,,,,,,,,,,,,,,,,,,,,,,,,,,,,,,,,,,,,,,,,,,,,,,,,,,,,,,,,,,,,,,,,,,,,,,,,,,,,,,,,,,,,,,,,,,,,,,,,,,,,,,,,,,,,,,,,,,,,,,,,,,,,,,,,,,,,,,,,,,,,,,,,,,,,,,,,,,,,,,,,,,,,,,,,,,,,,,,,,,,,,,,,,,,,,,,,,,,,,,,,,,,,,,,,,,,,,,,,,,,,,,,,,,,,,,,,,,,,,,,,,,,,,,,,,,,,,,,,,,,,,,,,,,,,,,,,,,,,,,,,,,,,,,,,,,,,,,,,,,,,,,,,,,,,,,,,,,,,,,,,,,,,,,,,,,,,,,,,,,,,,,,,,,,,,,,,,,,,,,,,,,,,,,,,,,,,,,,,,,,,,,,,,,,,,,,,,,,,,,,,,,,,,,,,,,,,,,,,,,,,,,,,,,,,,,,,,,,,,,,,,,,,,,,,,,,,,,,,,,,,,,,,,,,,,,,,,,,,,,,,,,,,,,,,,,,,,,,,,,,,,,,,,,,,,,,,,,,,,,,,,,,,,,,,,,,,,,,,,,,,,,,,,,,,,,,,,,,,,,,,,,,,,,,,,,,,,,,,,,,,,,,,,,,,,,,,,,,,,,,,,,,,,,,,,,,,,,,,,,,,,,,,,,,,,,,,,,,,,,,,,,,,,,,,,,,,,,,,,,,,,,,,,,,,,,,,,,,,,,,,,,,,,,,,,,,,,,,,,,,,,,,,,,,,,,,,,,,,,,,,,,,,,,,,,,,,,,,,,,,,,,,,,,,,,,,,,,,,,,,,,,,,,,,,,,,,,,,,,,,,,,,,,,,,,,,,,,,,,,,,,,,,,,,,,,,,,,,,,,,,,,,,,,,,,,,,,,,,,,,,,,,,,,,,,,,,,,,,,,,,,,,,,,,,,,,,,,,,,,,,,,,,,,,,,,,,,,,,,,,,,,,,,,,,,,,,,,,,,,,,,,,,,,,,,,,,,,,,,,,,,,,,,,,,,,,,,,,,,,,,,,,,,,,,,,,,,,,,,,,,,,,,,,,,,,,,,,,,,,,,,,,,,,,,,,,,,,,,,,,,,,,,,,,,,,,,,,,,,,,,,,,,,,,,,,,,,,,,,,,,,,,,,,,,,,,,,,,,,,,,,,,,,,,,,,,,,,,,,,,,,,,,,,,,,,,,,,,,,,,,,,,,,,,,,,,,,,,,,,,,,,,,,,,,,,,,,,,,,,,,,,,,,,,,,,,,,,,,,,,,,,,,,,,,,,,,,,,,,,,,,,,,,,,,,,,,,,,,,,,,,,,,,,,,,,,,,,,,,,,,,,,,,,,,,,,,,,,,,,,,,,,,,,,,,,,,,,,,,,,,,,,,,,,,,,,,,,,,,,,,,,,,,,,,,,,,,,,,,,,,,,,,,,,,,,,,,,,,,,,,,,,,,,,,,,,,,,,,,,,,,,,,,,,,,,,,,,,,,,,,,,,,,,,,,,,,,,,,,,,,,,,,,,,,,,,,,,,,,,,,,,,,,,,,,,,,,,,,,,,,,,,,,,,,,,,,,,,,,,,,,,,,,,,,,,,,,,,,,,,,,,,,,,,,,,,,,,,,,,,,,,,,,,,,,,,,,,,,,,,,,,,,,,,,,,,,,,,,,,,,,,,,,,,,,,,,,,,,,,,,,,,,,,,,,,,,,,,,,,,,,,,,,,,,,,,,,,,,,,,,,,,,,,,,,,,,,,,,,,,,,,,,,,,,,,,,,,,,,,,,,,,,,,,,,,,,,,,,,,,,,,,,,,,,,,,,,,,,,,,,,,,,,,,,,,,,,,,,,,,,,,,,,,,,,,,,,,,,,,,,,,,,,,,,,,,,,,,,,,,,,,,,,,,,,,,,,,,,,,,,,,,,,,,,,,,,,,,,,,,,,,,,,,,,,,,,,,,,,,,,,,,,,,,,,,,,,,,,,,,,,,,,,,,,,,,,,,,,,,,,,,,,,,,,,,,,,,,,,,,,,,,,,,,,,,,,,,,,,,,,,,,,,,,,,,,,,,,,,,,,,,,,,,,,,,,,,,,,,,,,,,,,,,,,,,,,,,,,,,,,,,,,,,,,,,,,,,,,,,,,,,,,,,,,,,,,,,,,,,,,,,,,,,,,,,,,,,,,,,,,,,,,,,,,,,,,,,,,,,,,,,,,,,,,,,,,,,,,,,,,,,,,,,,,,,,,,,,,,,,,,,,,,,,,,,,,,,,,,,,,,,,,,,,,,,,,,,,,,,,,,,,,,,,,,,,,,,,,,,,,,,,,,,,,,,,,,,,,,,,,,,,,,,,,,,,,,,,,,,,,,,,,,,,,,,,,,,,,,,,,,,,,,,,,,,,,,,,,,,,,,,,,,,,,,,,,,,,,,,,,,,,,,,,,,,,,,,,,,,,,,,,,,,,,,,,,,,,,,,,,,,,,,,,,,,,,,,,,,,,,,,,,,,,,,,,,,,,,,,,,,,,,,,,,,,,,,,,,,,,,,,,,,,,,,,,,,,,,,,,,,,,,,,,,,,,,,,,,,,,,,,,,,,,,,,,,,,,,,,,,,,,,,,,,,,,,,,,,,,,,,,,,,,,,,,,,,,,,,,,,,,,,,,,,,,,,,,,,,,,,,,,,,,,,,,,,,,,,,,,,,,,,,,,,,,,,,,,,,,,,,,,,,,,,,,,,,,,,,,,,,,,,,,,,,,,,,,,,,,,,,,,,,,,,,,,,,,,,,,,,,,,,,,,,,,,,,,,,,,,,,,,,,,,,,,,,,,,,,,,,,,,,,,,,,,,,,,,,,,,,,,,,,,,,,,,,,,,,,,,,,,,,,,,,,,,,,,,,,,,,,,,,,,,,,,,,,,,,,,,,,,,,,,,,,,,,,,,,,,,,,,,,,,,,,,,,,,,,,,,,,,,,,,,,,,,,,,,,,,,,,,,,,,,,,,,,,,,,,,,,,,,,,,,,,,,,,,,,,,,,,,,,,,,,,,,,,,,,,,,,,,,,,,,,,,,,,,,,,,,,,,,,,,,,,,,,,,,,,,,,,,,,,,,,,,,,,,,,,,,,,,,,,,,,,,,,,,,,,,,,,,,,,,,,,,,,,,,,,,,,,,,,,,,,,,,,,,,,,,,,,,,,,,,,,,,,,,,,,,,,,,,,,,,,,,,,,,,,,,,,,,,,,,,,,,,,,,,,,,,,,,,,,,,,,,,,,,,,,,,,,,,,,,,,,,,,,,,,,,,,,,,,,,,,,,,,,,,,,,,,,,,,,,,,,,,,,,,,,,,,,,,,,,,,,,,,,,,,,,,,,,,,,,,,,,,,,,,,,,,,,,,,,,,,,,,,,,,,,,,,,,,,,,,,,,,,,,,,,,,,,,,,,,,,,,,,,,,,,,,,,,,,,,,,,,,,,,,,,,,,,,,,,,,,,,,,,,,,,,,,,,,,,,,,,,,,,,,,,,,,,,,,,,,,,,,,,,,,,,,,,,,,,,,,,,,,,,,,,,,,,,,,,,,,,,,,,,,,,,,,,,,,,,,,,,,,,,,,,,,,,,,,,,,,,,,,,,,,,,,,,,,,,,,,,,,,,,,,,,,,,,,,,,,,,,,,,,,,,,,,,,,,,,,,,,,,,,,,,,,,,,,,,,,,,,,,,,,,,,,,,,,,,,,,,,,,,,,,,,,,,,,,,,,,,,,,,,,,,,,,,,,,,,,,,,,,,,,,,,,,,,,,,,,,,,,,,,,,,,,,,,,,,,,,,,,,,,,,,,,,,,,,,,,,,,,,,,,,,,,,,,,,,,,,,,,,,,,,,,,,,,,,,,,,,,,,,,,,,,,,,,,,,,,,,,,,,,,,,,,,,,,,,,,,,,,,,,,,,,,,,,,,,,,,,,,,,,,,,,,,,,,,,,,,,,,,,,,,,,,,,,,,,,,,,,,,,,,,,,,,,,,,,,,,,,,,,,,,,,,,,,,,,,,,,,,,,,,,,,,,,,,,,,,,,,,,,,,,,,,,,,,,,,,,,,,,,,,,,,,,,,,,,,,,,,,,,,,,,,,,,,,,,,,,,,,,,,,,,,,,,,,,,,,,,,,,,,,,,,,,,,,,,,,,,,,,,,,,,,,,,,,,,,,,,,,,,,,,,,,,,,,,,,,,,,,,,,,,,,,,,,,,,,,,,,,,,,,,,,,,,,,,,,,,,,,,,,,,,,,,,,,,,,,,,,,,,,,,,,,,,,,,,,,,,,,,,,,,,,,,,,,,,,,,,,,,,,,,,,,,,,,,,,,,,,,,,,,,,,,,,,,,,,,,,,,,,,,,,,,,,,,,,,,,,,,,,,,,,,,,,,,,,,,,,,,,,,,,,,,,,,,,,,,,,,,,,,,,,,,,,,,,,,,,,,,,,,,,,,,,,,,,,,,,,,,,,,,,,,,,,,,,,,,,,,,,,,,,,,,,,,,,,,,,,,,,,,,,,,,,,,,,,,,,,,,,,,,,,,,,,,,,,,,,,,,,,,,,,,,,,,,,,,,,,,,,,,,,,,,,,,,,,,,,,,,,,,,,,,,,,,,,,,,,,,,,,,,,,,,,,,,,,,,,,,,,,,,,,,,,,,,,,,,,,,,,,,,,,,,,,,,,,,,,,,,,,,,,,,,,,,,,,,,,,,,,,,,,,,,,,,,,,,,,,,,,,,,,,,,,,,,,,,,,,,,,,,,,,,,,,,,,,,,,,,,,,,,,,,,,,,,,,,,,,,,,,,,,,,,,,,,,,,,,,,,,,,,,,,,,,,,,,,,,,,,,,,,,,,,,,,,,,,,,,,,,,,,,,,,,,,,,,,,,,,,,,,,,,,,,,,,,,,,,,,,,,,,,,,,,,,,,,,,,,,,,,,,,,,,,,,,,,,,,,,,,,,,,,,,,,,,,,,,,,,,,,,,,,,,,,,,,,,,,,,,,,,,,,,,,,,,,,,,,,,,,,,,,,,,,,,,,,,,,,,,,,,,,,,,,,,,,,,,,,,,,,,,,,,,,,,,,,,,,,,,,,,,,,,,,,,,,,,,,,,,,,,,,,,,,,,,,,,,,,,,,,,,,,,,,,,,,,,,,,,,,,,,,,,,,,,,,,,,,,,,,,,,,,,,,,,,,,,,,,,,,,,,,,,,,,,,,,,,,,,,,,,,,,,,,,,,,,,,,,,,,,,,,,,,,,,,,,,,,,,,,,,,,,,,,,,,,,,,,,,,,,,,,,,,,,,,,,,,,,,,,,,,,,,,,,,,,,,,,,,,,,,,,,,,,,,,,,,,,,,,,,,,,,,,,,,,,,,,,,,,,,,,,,,,,,,,,,,,,,,,,,,,,,,,,,,,,,,,,,,,,,,,,,,,,,,,,,,,,,,,,,,,,,,,,,,,,,,,,,,,,,,,,,,,,,,,,,,,,,,,,,,,,,,,,,,,,,,,,,,,,,,,,,,,,,,,,,,,,,,,,,,,,,,,,,,,,,,,,,,,,,,,,,,,,,,,,,,,,,,,,,,,,,,,,,,,,,,,,,,,,,,,,,,,,,,,,,,,,,,,,,,,,,,,,,,,,,,,,,,,,,,,,,,,,,,,,,,,,,,,,,,,,,,,,,,,,,,,,,,,,,,,,,,,,,,,,,,,,,,,,,,,,,,,,,,,,,,,,,,,,,,,,,,,,,,,,,,,,,,,,,,,,,,,,,,,,,,,,,,,,,,,,,,,,,,,,,,,,,,,,,,,,,,,,,,,,,,,,,,,,,,,,,,,,,,,,,,,,,,,,,,,,,,,,,,,,,,,,,,,,,,,,,,,,,,,,,,,,,,,,,,,,,,,,,,,,,,,,,,,,,,,,,,,,,,,,,,,,,,,,,,,,,,,,,,,,,,,,,,,,,,,,,,,,,,,,,,,,,,,,,,,,,,,,,,,,,,,,,,,,,,,,,,,,,,,,,,,,,,,,,,,,,,,,,,,,,,,,,,,,,,,,,,,,,,,,,,,,,,,,,,,,,,,,,,,,,,,,,,,,,,,,,,,,,,,,,,,,,,,,,,,,,,,,,,,,,,,,,,,,,,,,,,,,,,,,,,,,,,,,,,,,,,,,,,,,,,,,,,,,,,,,,,,,,,,,,,,,,,,,,,,,,,,,,,,,,,,,,,,,,,,,,,,,,,,,,,,,,,,,,,,,,,,,,,,,,,,,,,,,,,,,,,,,,,,,,,,,,,,,,,,,,,,,,,,,,,,,,,,,,,,,,,,,,,,,,,,,,,,,,,,,,,,,,,,,,,,,,,,,,,,,,,,,,,,,,,,,,,,,,,,,,,,,,,,,,,,,,,,,,,,,,,,,,,,,,,,,,,,,,,,,,,,,,,,,,,,,,,,,,,,,,,,,,,,,,,,,,,,,,,,,,,,,,,,,,,,,,,,,,,,,,,,,,,,,,,,,,,,,,,,,,,,,,,,,,,,,,,,,,,,,,,,,,,,,,,,,,,,,,,,,,,,,,,,,,,,,,,,,,,,,,,,,,,,,,,,,,,,,,,,,,,,,,,,,,,,,,,,,,,,,,,,,,,,,,,,,,,,,,,,,,,,,,,,,,,,,,,,,,,,,,,,,,,,,,,,,,,,,,,,,,,,,,,,,,,,,,,,,,,,,,,,,,,,,,,,,,,,,,,,,,,,,,,,,,,,,,,,,,,,,,,,,,,,,,,,,,,,,,,,,,,,,,,,,,,,,,,,,,,,,,,,,,,,,,,,,,,,,,,,,,,,,,,,,,,,,,,,,,,,,,,,,,,,,,,,,,,,,,,,,,,,,,,,,,,,,,,,,,,,,,,,,,,,,,,,,,,,,,,,,,,,,,,,,,,,,,,,,,,,,,,,,,,,,,,,,,,,,,,,,,,,,,,,,,,,,,,,,,,,,,,,,,,,,,,,,,,,,,,,,,,,,,,,,,,,,,,,,,,,,,,,,,,,,,,,,,,,,,,,,,,,,,,,,,,,,,,,,,,,,,,,,,,,,,,,,,,,,,,,,,,,,,,,,,,,,,,,,,,,,,,,,,,,,,,,,,,,,,,,,,,,,,,,,,,,,,,,,,,,,,,,,,,,,,,,,,,,,,,,,,,,,,,,,,,,,,,,,,,,,,,,,,,,,,,,,,,,,,,,,,,,,,,,,,,,,,,,,,,,,,,,,,,,,,,,,,,,,,,,,,,,,,,,,,,,,,,,,,,,,,,,,,,,,,,,,,,,,,,,,,,,,,,,,,,,,,,,,,,,,,,,,,,,,,,,,,,,,,,,,,,,,,,,,,,,,,,,,,,,,,,,,,,,,,,,,,,,,,,,,,,,,,,,,,,,,,,,,,,,,,,,,,,,,,,,,,,,,,,,,,,,,,,,,,,,,,,,,,,,,,,,,,,,,,,,,,,,,,,,,,,,,,,,,,,,,,,,,,,,,,,,,,,,,,,,,,,,,,,,,,,,,,,,,,,,,,,,,,,,,,,,,,,,,,,,,,,,,,,,,,,,,,,,,,,,,,,,,,,,,,,,,,,,,,,,,,,,,,,,,,,,,,,,,,,,,,,,,,,,,,,,,,,,,,,,,,,,,,,,,,,,,,,,,,,,,,,,,
,0.1420,0.1243,-0.1316,-0.1696,-0.1072,0.0265,-0.1435,0.0770,-0.0395,-0.1641,0.0339,0.0019,-0.0857,0.1217,-0.0927,0.1286,-0.1853,-0.0877,-0.0442,0.0310,-0.1627,0.0867,-0.1304,-0.1076,-0.1241,0.0826,0.1626,-0.3030,-0.0581,-0.1576,0.1051,-0.1130,0.1342,0.0279,0.1149,-0.1184,0.0051,-0.1340,-0.0127,-0.1624,-0.0853,-0.0795,-0.1011,-0.1437,-0.2451,-0.0868,0.1361,0.1746,-0.0525,0.0364,-0.1361,0.0935,-0.0685,0.0856,0.1280,-0.1561,-0.0968,-0.0364,-0.1457,0.1126,-0.0023,-0.1125,-0.0994,-0.0121,0.1876,-0.1222,-0.0001,-0.1714,0.0324,0.0898,0.1168,0.0288,-0.1823,0.0998,0.0605,0.0873,-0.1410,-0.1668,-0.0239,0.0248,-0.1321,-0.1091,0.0375,-0.0759,-0.0944,-0.1219,0.1441,-0.1542,0.1940,-0.0051,0.0015,0.0394,-0.1707,-0.0811,0.0174,-0.0808,0.0143,0.0940,0.0864,0.0091,-0.1491,0.1335,-0.1592,-0.0119,0.1411,0.1682,-0.1906,-0.1640,0.1535,0.0091,0.0666,0.2287,0.2270,-0.0278,-0.0954,-0.0213,0.1226,-0.1080,0.0579,0.1448,-0.1019,-0.1641,0.0667,0.0077,-0.1634,-0.1099,0.0625,-0.1327,-0.0453,0.0551,0.0189,0.1184,-0.0343,0.1005,0.1220,-0.1140,-0.0318,0.0584,-0.1285,-0.1615,0.0833,-0.1421,0.1592,-0.1221,0.1971,-0.1262,-0.1225,0.0994,-0.0478,-0.0176,-0.2095,-0.2035,0.0384,-0.0752,0.1511,0.0069,0.0828,0.1339,-0.0857,0.0061,0.0162,0.0697,0.0154,-0.1243,-0.0465,0.0608,0.0028,-0.0993,0.1224,0.0761,-0.0686,0.0865,-0.1234,0.0632,-0.0251,0.1734,-0.1372,0.0259,0.1733,-0.0874,0.0844,0.0816,-0.0225,-0.1569,-0.0503,0.1464,0.1578,-0.0338,-0.1011,-0.1558,0.1252,0.0446,-0.1709,0.0209,0.0773,0.1353,0.1531,-0.1527,0.1507,0.0762,-0.0935,0.0791,-0.1263,0.1430,-0.0275,-0.0593,-0.0589,0.0083,0.0729,-0.0254,-0.1318,-0.0206,0.0702,0.0080,-0.0073,-0.0502,0.0100,-0.0960,-0.0760,0.1076,0.1508,0.0777,-0.0057,0.0407,-0.1366,0.1367,0.0360,0.1308,-0.0300,0.0029,0.1758,-0.0726,-0.0857,0.0226,0.0535,0.0589,-0.0009,-0.1206,0.0106,-0.1433,0.0941,0.0874,-0.1513,0.1170,-0.1673,-0.1555,-0.1582,0.0210,0.0218,-0.1318,0.0722,-0.1305,-0.0503,-0.0479,0.1493,0.1543,-0.0557,0.0112,-0.0600,0.1597,-0.1236,0.1642,0.0321,-0.0329,-0.0606,0.1192,-0.1290,-6.9077,-0.2464,-4.8322,0.7550,-0.3862,-0.1348,-0.1624,-1.2397,-0.9484,0.5279,-0.1356,-1.4001,-1.4978,-0.9711,-0.0785,0.1438,-0.1555,-1.2315,-0.3594,0.0578,-0.0448,0.8837,-4.4357,-5.6170,0.0478,0.1025,-0.0345,-1.8990,-0.2492,0.0874,-0.6252,-0.1654,-0.4515,0.1977,-0.6564,0.0854,0.0377,-0.2317,0.1245,-0.2540,-0.1330,-0.0401,0.0953,-5.5977,-1.1009,0.0506,0.0190,-0.1154,0.0592,-1.8808,-0.8976,-4.2277,-0.0416,-3.0447,-0.0989,-0.2696,-0.0862,-0.1479,-0.8732,-0.1230,-1.0812,-0.1232,-0.1492,-0.5933,-0.2834,-0.4624,-0.1386,-5.5368,-0.3054,-1.9139,-0.0860,-0.1924,0.1333,0.0544,-0.2715,1.6077,-0.0959,0.7594,-8.8840,0.8477,-0.3097,-0.6515,-1.2354,-7.6523,-0.0167,-0.3112,-12.3390,-0.5303,0.0427,-7.6371,0.0014,-0.0091,0.0129,0.0919,-0.1006,-0.1526,-0.0226,-2.0057,-0.1260,0.0300,0.0489,-0.1274,-0.1091,0.0938,-0.1703,-0.0900,-0.1871,-0.5541,0.1428,0.1310,-0.0289,-0.1077,-0.0437,0.1383,-0.1309,0.0675,-0.1460,0.0466,-0.1270,0.0029,-0.1304,0.0625,-0.0237,0.1496,0.1332,-0.0061,0.0131,0.1484,-0.0324,0.1470,-0.1441,0.0048,0.0958,0.0470,-0.0777,0.0459,-0.0835,0.1067,-0.1463,0.1092,-0.0243,-0.0113,-0.0160,0.0887,-0.0346,-0.0820,-0.2173,-0.0862,-0.0105,0.1250,-0.1220,0.0232,-0.1160,0.1352,-0.0563,-0.0785,-0.2052,-0.1416,0.0914,0.0684,-0.0636,-0.0387,0.0785,-0.0761,0.0197,-0.0400,-0.0929,0.1651,0.1285,-0.1290,0.0493,-0.0033,0.0224,0.0863,-0.0557,-0.0822,-0.0833,-0.0348,-0.1411,-0.1740,0.0576,-0.2074,0.1095,-0.1145,0.0658,-0.1292,0.1147,0.1084,-0.0587,0.1204,0.0037,-0.2187,0.0672,-0.0126,-0.0044,0.0652,0.1385,-0.0426,-0.0764,-0.0193,-0.0138,-0.0731,0.1418,0.0147,-0.0281,-0.1338,-0.0407,-6.6816,0.4315,-0.1520,-0.0994,0.4923,-3.0450,-1.9119,-0.2774,-0.3615,-0.0172,-0.9293,-0.0475,-1.0965,-0.1307,0.2527,0.0960,-3.6532,-0.1362,0.0676,-0.2123,-1.3474,-0.0101,0.5319,-0.0647,-0.6425,0.2926,-0.7617,-0.7237,-0.1341,-0.1870,0.0333,-2.2094,-0.1556,-4.4773,-6.2250,-0.8521,-0.2347,-0.1770,0.1989,-0.2398,-0.4745,0.0248,-0.2642,-0.5346,-3.4523,-0.1531,-0.1391,0.6505,-0.1628,-0.0445,0.1140,-0.0983,-0.0309,-2.3956,0.0613,-1.2722,-1.1978,-0.0400,-1.4465,-1.1721,-1.1375,-0.8335,0.2038,-0.3261,-0.1054,-1.3999,-0.2299,-0.1221,-0.1789,-0.1703,-8.8202,-0.1343,0.2041,-0.3623,-0.3991,-0.1109,0.2863,-0.2328,-0.3047,-0.3767,-0.1635,-0.0169,-0.6245,-0.0554,0.0084,-0.0523,-0.2886,-0.0755,-0.2961,0.0009,0.0378,-0.0472,-3.3383,-0.0738,-0.0498,0.1096,-0.1013,0.0536,0.0006,-0.0916,0.1046,-0.0257,-0.0543,0.1318,0.0647,-0.0246,0.1032,0.0065,0.1037,-0.1644,-0.1307,0.1515,0.1198,-0.0639,-0.0496,0.0265,-0.0146,-0.0551,-0.1175,0.1013,0.0747,0.0899,0.0680,-0.0485,-0.0332,0.1686,0.0230,-0.1715,0.0902,-0.1296,0.1622,-0.0211,-0.1270,0.0347,0.1268,-0.1322,-0.1016,-0.0591,0.1131,-0.0152,0.1146,0.0546,0.1039,-0.1032,-0.0596,0.0418,-0.0050,0.0866,-0.1362,0.1586,-0.0319,0.0701,-0.1428,-0.0062,0.1705,0.0902,0.1476,0.0844,0.0507,0.1389,0.1571,-0.0718,-0.1184,0.0943,-0.1636,0.1670,-0.0784,-0.1469,0.1519,-0.1452,-0.0033,0.1348,0.1641,-0.1684,0.1445,-0.0172,0.0918,-0.0039,-0.1377,-0.1037,-0.0803,0.1637,-0.0760,-0.1368,0.1053,-0.0247,-0.1246,0.1323,0.0965,-0.1111,-0.0832,0.0369,0.1605,-1.0211,-0.0978,0.8257,2.0306,0.9874,-0.0011,-3.6193,-1.9066,-8.2139,-3.7667,-0.1370,-0.2203,-1.3452,-1.3039,0.4771,-0.9603,-0.3405,0.1415,-0.9232,-1.8315,-0.0695,-0.6450,1.0842,-3.4642,-0.0967,-0.2896,0.0529,-0.5699,-0.7158,-0.2539,-0.8703,-0.3159,-4.7341,-0.0378,-0.7739,-0.0645,0.0408,0.0584,1.8872,-0.5075,1.5664,-0.4039,0.1556,-2.2284,0.2304,-0.5441,0.0456,-2.5713,-0.5161,-0.3021,-0.4497,-0.5086,-3.2904,-1.1240,-2.9994,-0.0809,0.0892,-0.0832,0.7793,-0.0911,-3.3235,0.0550,0.7980,-3.5000,-0.1307,3.7717,1.9508,-0.7440,-0.6211,1.1194,0.3551,-0.0099,1.8196,-0.5951,-0.4595,-0.0065,0.1065,0.7980,-2.1366,1.6679,1.7465,1.0239,-0.1390,-1.9671,-0.0939,-0.8124,-1.0635,-12.2293,-0.1602,-5.8408,-0.1586,-0.0909,-0.4764,-0.3409,0.3184,-1.1184,0.0459,0.1887,-0.1605,0.4469,-1.1371,0.0744,-0.4597,1.1075,-0.6650,0.1126,-0.5420,-1.0533,-0.2549,0.4061,0.0155,1.4455,1.1805,-2.9056,0.1421,0.1783,-0.1078,0.6035,-0.1652,-0.2342,-0.0870,-1.4547,-1.9145,0.1056,-0.1020,-0.0138,-0.1216,-0.7342,-0.1378,-5.1624,-0.1944,-4.0282,0.0368,0.4096,0.3048,-0.0583,-0.0428,-0.1723,-0.3323,-0.0980,0.4605,0.7923,0.4564,0.4767,0.6385,-0.1234,-0.1184,-0.1226,-0.0856,0.5854,-0.6504,0.6739,0.0184,0.0283,-0.1856,-0.0624,0.0990,-0.1966,-0.3619,0.0388,0.3321,-0.1802,0.1427,-0.4885,0.0235,0.3380,-0.8355,-0.8971,-0.2367,-0.9575,0.0625,-0.0556,0.1026,0.0184,0.0571,1.2004,-0.0124,-0.1327,-0.2058,0.3182,-0.8943,-0.9234,-1.2974,0.3910,-0.1401,-0.0228,-0.2224,0.0127,-0.1780,-1.0286,-0.0533,-0.0252,0.1596,-0.3556,-0.2512,-0.0786,-0.0751,-0.5004,0.0788,0.4091,0.1253,0.0851,-0.1344,0.0877,0.1172,-0.0810,-0.1683,-0.1266,0.1269,-0.0086,-0.2202,0.1138,0.3103,-0.0931,-0.0785,-0.3692,-0.0238,0.0400,-0.4778,0.0326,0.0186,-0.0073,-0.4991,0.1582,-0.1067,0.0712,0.0292,-0.0590,0.0643,-0.2564,0.0274,-0.0363,0.0594,0.1497,0.3699,-0.0503,-0.1270,0.0264,-0.0735,0.1554,-0.0243,-0.0404,-0.0173,-0.3229,0.3322,0.0540,-0.1314,-0.0996,-0.1600,0.1622,-0.0614,0.2785,0.0776,-0.3385,-0.0619,-0.1234,-0.0239,0.0738,-0.0538,-0.1340,0.0611,-0.0493,-0.1479,-0.1842,0.0885,0.1067,-0.0809,-0.2029,-0.2409,-0.1762,0.0046,-0.0052,-0.0345,-0.1731,0.1172,-0.0520,-0.1719,0.2658,-0.2791,0.1607,-0.1224,-0.1340,-0.3837,-0.2247,-0.1913,0.0324,-0.0712,0.1020,0.0740,0.0709,-0.0226,-0.1068,-0.1480,-0.0678,-0.0214,0.0123,-0.2039,-0.5369,-0.1381,0.0654,0.2814,0.0389,0.8320,0.9220,0.0090,-0.0006,0.0559,-2.5313,-1.5444,-10.5722,-0.1311,0.5124,-0.7144,-3.8734,-1.2832,0.3689,0.0208,-0.0389,0.2703,1.1855,0.0430,0.4769,-0.9836,-0.5322,-0.1548,-0.2018,0.0041,-0.0184,0.0877,0.2559,0.1466,-0.4091,0.1320,-0.0259,-0.1449,0.1102,0.1343,-0.0723,0.8585,-0.0168,-1.4462,0.1359,0.0170,0.3224,0.3415,-0.1634,-0.1991,0.4118,0.0494,-0.1383,0.1910,-0.8490,0.3399,-0.3532,-0.2385,-0.1084,-0.0720,0.0575,-0.0103,-0.1264,-0.0195,-0.1074,-0.1384,1.5044,-0.0584,0.1939,-0.3797,-0.5938,0.1722,-0.1619,-0.2383,0.0064,0.3044,-0.1771,-0.1453,0.7224,0.1030,-1.4173,1.2051,0.3431,-0.2508,0.6682,-0.6036,-0.6210,0.1212,-0.3019,-0.5625,-1.9298,0.0842,-0.5254,0.0716,-0.1856,-0.1602,0.1242,-0.0415,-0.6681,0.0127,0.7362,-0.0834,-0.7879,-0.0841,-0.0082,-0.1809,0.0215,-0.0219,-0.0899,-0.1441,0.1796,0.0140,0.0971,0.0127,-0.0706,-0.0154,0.1593,0.1230,-0.0887,0.0649,0.1608,0.1128,-0.1896,0.0322,0.0508,0.0227,0.0346,-0.1675,0.1349,-0.1655,-0.0625,-0.1631,0.0274,0.0521,-0.0755,-0.0190,-0.0230,-0.0176,-0.1050,-0.0443,-0.0856,0.1964,0.0356,-0.1288,-0.0461,-0.0148,-0.0022,-0.1139,0.0695,-0.0246,-0.0931,0.0710,-0.1074,-0.1350,0.0300,0.0247,-0.1443,-0.0568,0.0731,-0.0721,-0.0189,-0.1778,0.1031,-0.2787,0.0394,-0.0680,-0.1086,-0.1314,-0.1216,-0.0040,0.1336,-0.1093,-0.0528,-0.0906,0.1162,-0.1056,-0.0566,-0.0947,0.1733,-0.0207,0.0593,0.1305,-0.2059,0.1646,0.0176,0.0406,-0.0661,0.1275,-0.0247,0.0238,-0.0427,0.0808,-0.0066,-0.1372,0.1577,-0.1141,0.0668,-0.1422,0.0583,-0.0013,-0.1613,0.1702,-0.1429,-0.1421,-0.0030,-0.9209,-0.0811,-0.3190,-0.0198,-0.2314,-3.7233,-3.5336,0.3450,-0.2024,0.6224,-1.4703,-0.9701,-0.2517,-0.1928,-0.0017,-0.5888,-0.4307,-17.7542,0.0080,0.0298,0.5060,-4.6704,-0.0956,-0.1602,-0.1350,0.6213,-0.1566,-0.1258,-1.5243,-0.6878,0.8924,-0.6303,-0.1252,0.0141,-0.0736,0.0480,-1.0568,-0.0174,-0.3313,-1.8722,-6.1984,-0.2790,0.2297,-0.0646,0.0006,-0.2541,0.0164,0.3587,0.3492,-6.5818,-0.5526,0.3089,-0.3516,-0.1149,-0.0864,0.0373,-0.3724,-0.0596,0.0564,-0.2056,-0.5726,-0.5275,0.0137,-0.7932,-0.1499,-8.0930,-0.3400,0.4485,-0.0442,-0.0721,-0.3852,0.0227,-0.0252,0.0603,0.1010,-0.0858,0.1825,0.2004,-0.2295,0.1494,0.0577,-1.5382,-0.0819,0.1421,-0.5356,-4.1434,-0.1503,-2.1830,-0.1104,0.0872,-0.1538,-0.0140,-0.1420,-4.9365,-0.0486,0.1062,-0.0551,-17.7063,-0.1086,-0.0404,-0.1831,0.0254,-0.3849,0.0314,-0.0431,-0.3320,-0.1634,-0.2829,0.0029,-0.1544,-0.9502,0.0220,-0.0886,-0.1325,0.0896,0.0206,-0.1269,-0.0100,0.0145,0.2520,-0.0787,0.0595,0.1293,-0.1146,-0.0678,0.1161,0.0432,-0.4608,-0.2136,-0.5607,0.0640,0.2361,0.0403,-0.1405,0.0267,-0.1016,-0.0605,0.0088,-0.1624,0.2768,-0.0796,-0.1470,-0.6396,-0.1198,-0.2003,0.1120,0.0328,0.0087,0.0343,0.2088,-0.0714,-0.0187,-0.0570,-0.0952,-0.1964,-0.0003,-0.2031,0.0510,0.2290,0.0738,-0.4736,-0.1916,-0.1812,-0.3833,0.0679,-0.2472,0.0012,-0.2330,0.1181,-0.1411,-0.1712,-0.1000,0.0649,-0.1882,-0.0855,0.3097,0.1602,0.2106,-0.0109,-0.0943,0.0362,0.0910,-0.0043,-0.0356,-0.0515,-0.0338,-0.1757,-0.1862,0.1178,-0.0138,-0.1305,0.2037,0.1156,0.0003,0.0590,0.3110,-0.1778,-0.0979,-0.1581,-0.0998,0.1172,0.1638,0.1930,-0.1471,0.1150,-0.1138,-0.0505,0.1188,-0.0859,-0.0275,-0.1402,-0.0601,-0.0435,-0.0151,-0.1636,-0.1305,0.0963,-0.0332,0.0555,-0.1387,0.1049,-0.1356,0.0848,-0.1022,0.0606,-0.0749,-0.1309,-0.1857,0.0938,-0.0333,-0.0441,-0.0006,-0.1495,-0.1398,0.1278,0.0728,-0.0447,0.0865,0.0741,-0.1454,0.0817,-0.0418,0.0531,0.0995,-0.1387,0.1038,-0.1071,-0.0918,-0.0189,0.1196,0.0818,0.0383,0.0160,-0.0479,0.1152,-0.1439,0.1460,0.0462,-0.1857,-0.1963,-0.0041,0.1775,-0.0492,-0.0878,-0.1658,0.1024,0.0791,0.0263,-0.0462,-0.0601,-0.1531,0.1251,0.1544,-0.1195,-0.1602,-0.1726,0.0170,0.1531,-0.0888,0.0857,0.1397,0.0955,-0.1525,0.0897,-0.1154,0.1342,0.0202,0.0478,-0.0478,-0.0447,-0.0556,-0.1559,0.1246,0.1166,-0.1985,-0.0092,-0.1566,-0.0216,0.0309,-0.1477,-4.4589,-0.5126,-0.1543,-0.1961,-0.6047,-3.9456,0.7640,-1.7563,-0.1708,-0.1268,-0.4218,-1.5684,-0.3544,-0.6060,-0.1207,0.8955,-0.3849,-1.7836,0.0753,-2.0321,-5.9531,0.4604,-0.1866,-0.3391,-0.0898,-4.8541,-0.2389,-4.0617,-0.5035,-1.7561,-0.2642,-0.3758,0.2972,-0.0097,-0.1906,-0.0958,-1.4689,-0.2751,-0.6993,-4.1760,0.8358,0.7598,-15.1897,-2.7370,-0.1039,0.0624,-0.2084,0.6455,-0.7469,1.0210,-0.7888,0.6947,-4.7679,-0.0938,-0.1362,-0.0027,0.1398,0.0487,-0.1808,-0.0786,0.0212,0.2213,-0.2754,-0.2619,-0.3940,0.4252,-1.2728,-0.0329,-0.2489,0.1386,-0.3859,-0.1394,-0.3716,-0.6543,-0.0275,0.2552,0.1558,-1.9956,-0.3778,-0.2785,-5.6781,1.5570,-0.4008,0.0516,-0.5638,-0.6975,-0.1666,-1.5843,-0.0529,-0.1610,-0.3070,-0.1298,0.0961,-0.1370,-0.1789,-21.3049,-0.1183,0.4737,-0.5196,0.0335,-0.2580,-0.4110,0.0454,0.0881,-0.0913,-0.2091,-0.4150,0.1785,-0.0225,0.2843,-0.4404,-0.6332,-0.2433,-0.1283,0.1759,-0.0258,-0.9868,-0.6767,-0.0225,-0.4742,-0.1634,-0.2013,0.1447,0.1271,-0.0004,0.1414,0.3778,-0.3648,0.0759,-0.3628,-0.3338,-0.0631,-0.0084,0.0062,-0.0083,-0.2034,-0.7858,0.1681,-0.0635,0.0395,0.0343,0.3673,-1.1984,-0.7237,-0.1479,0.1493,0.3107,-0.7915,-3.5934,-0.0071,0.2178,-0.4042,-0.1589,0.0111,0.1643,-0.1315,-0.0007,-0.1945,-0.1343,0.1594,0.2225,-0.1827,0.1233,0.0513,-0.2888,0.2109,-0.3042,-0.3646,0.0650,-0.0186,0.0763,0.0588,0.3086,-0.5420,0.0935,0.1559,-0.5135,-0.1927,-1.9119,0.0687,-2.0772,0.1530,-0.1696,0.2735,-0.0481,-1.0090,0.0154,-2.2777,0.1030,0.1328,0.3038,0.2947,0.2980,0.3942,0.0978,-2.5648,-0.1604,-0.4139,-0.1716,-0.0378,-0.1413,-0.1505,-0.0814,-0.0785,0.0280,-0.0794,-0.0613,0.0411,0.0949,0.0904,-0.0077,0.0573,-0.0990,0.1118,-0.0880,0.1230,0.0551,-0.0836,0.0703,-0.0148,0.1149,0.0673,-0.0522,-0.0353,-0.0500,-0.0349,0.1548,0.0111,-0.0508,-0.0497,-0.0453,0.0109,-0.0566,-0.1729,0.1435,0.1100,-0.0607,-0.1449,0.1209,-0.0213,0.1256,0.1467,-0.0423,0.1520,-0.1314,0.0851,-0.0576,0.0950,0.0772,0.0255,0.0150,0.0128,0.0325,0.0212,0.0816,0.0496,0.1705,0.1062,-0.0880,0.0487,0.0815,-0.0106,0.0954,-0.0883,0.0599,0.1570,0.0239,-0.1619,0.1259,-0.0787,0.1285,0.1157,0.1369,-0.0184,-0.0816,-0.0326,-0.0704,0.1304,0.1166,0.0073,-0.1386,0.1585,-0.0205,0.0975,0.1122,-0.1278,-0.0643,0.1112,0.1032,-0.1615,0.0078,0.0914,-0.0803,0.0121,-0.0884,-0.0285,0.0532,-0.0296,-0.4570,0.0203,-0.0565,0.4501,0.1626,-0.0052,0.1392,-0.0868,0.4372,-0.9840,-0.1222,0.0383,0.1662,-0.3532,-0.0539,-0.1143,-0.0272,-3.0996,0.0319,0.1940,-0.1849,-0.4206,-1.7421,-0.1736,-0.0022,-0.0391,-0.1090,0.1286,0.0044,0.0697,0.0909,-1.1186,-0.1022,0.0175,0.1133,-0.1429,-0.1408,-0.1347,-0.3875,0.2096,-0.6967,-0.1001,-0.2059,0.3830,0.7947,1.0155,0.1074,-0.0826,-0.1077,0.0473,0.0155,0.1377,-0.0379,-2.9431,-0.0538,-0.0359,-0.1240,0.1228,-0.3639,0.0210,-0.0406,0.0872,-2.4968,-0.1909,-0.0908,-0.1716,-0.1998,0.0544,-0.0479,-1.3701,0.1418,0.0065,0.6836,-0.0795,0.1680,-0.0388,-0.1171,-0.2876,-0.6080,-0.5271,-2.1870,-0.4581,-0.7147,-0.6804,0.0726,0.3332,-0.7108,-0.3017,-0.1396,0.1334,0.1483,-0.2148,-0.1580,-0.3055,-0.0640,0.2981,-0.1213,0.1733,-0.0681,0.5820,-0.1570,-0.0957,-0.4128,-0.0183,0.2009,-0.0629,-0.0087,-0.3355,-0.1054,-0.0841,0.0240,0.0543,-0.0933,0.0726,0.0775,-0.1334,0.0768,-0.2231,-0.0520,-0.0683,0.1594,0.0049,-0.2354,0.1688,-0.1555,0.1052,0.0061,0.1952,0.0829,-0.1340,-0.0100,-0.1329,-0.0410,-0.1169,-0.1525,0.0144,0.0532,-0.1440,-0.0169,-0.0749,0.0738,0.0961,0.0301,-0.0877,-0.0349,0.2201,0.0983,0.0845,-0.1945,0.2203,-0.0179,-0.0502,0.1456,-0.1661,-0.2022,-0.0966,0.0391,-0.0313,-0.1396,-0.0375,-0.4979,0.0645,0.0275,-0.1143,-0.0906,-0.2333,-0.0662,-0.0969,-0.3328,-0.0440,0.1184,0.1127,0.1609,0.1082,-0.1021,-0.0952,0.1202,0.0474,0.0101,-0.1416,-0.2243,-0.1431,0.0177,-0.0345,-0.1695,-0.0984,0.0337,0.1507,-0.0078,-0.0065,0.0097,0.1159,-0.1457,-0.0531,-0.0521,0.0914,-0.1529,0.1711,0.0818,-0.0305,0.0220,0.1204,-0.1627,-0.0121,-0.1684,-0.1166,-0.0659,-0.1550,0.0625,0.0695,-0.0469,-0.0396,-0.1158,0.0587,0.0058,-0.1590,-0.0044,-0.0423,-0.0517,-0.1447,0.0301,0.0146,0.0106,0.1470,-0.0126,0.0037,-0.0838,-0.1178,-0.1373,0.1648,-0.0925,-0.0261,-0.1231,-0.0902,0.1008,-0.1451,-0.1273,-0.0738,0.0173,-0.1517,0.0146,-0.1627,0.0570,0.0539,0.1190,0.0882,0.0758,-0.1338,-0.0796,-0.0942,-0.0350,-0.1625,0.0025,0.0784,-0.1103,0.0048,0.1374,-0.1327,0.0129,0.0611,-0.1173,-0.1652,-0.1122,-0.1489,-0.0393,-0.0612,0.0153,0.1552,-0.1692,0.0587,0.1424,0.1603,0.0808,0.1319,0.0711,-0.0070,0.0454,0.1052,-0.1702,-0.1544,0.1464,-0.0747,-0.1505,0.1358,0.1401,-0.0620,-0.1539,0.1643,-0.0721,0.1370,0.1002,-0.1540,-0.0932,-0.0247,0.1374,0.0856,-0.1424,-0.1128,0.1475,0.0145,0.0065,-0.1573,0.2093,0.2570,0.0632,0.1101,-0.4602,0.2805,0.0701,-2.4366,-0.0832,-0.4148,-1.6305,0.2246,-0.4775,-0.3672,-0.0829,0.1827,-0.2715,-0.5787,-0.1055,-0.0349,-1.0243,-0.1209,0.1348,-0.0277,0.0217,-0.1926,-0.2728,-0.2494,-0.3297,0.1840,-0.7446,-0.1194,-0.5709,-0.0514,-0.0663,0.0678,-0.4280,-0.1881,-0.5886,-0.8366,-0.1042,0.2209,-0.0343,-0.1143,-0.2204,0.0007,-0.1195,0.0134,-7.3874,-0.1183,0.0949,0.0054,-0.7296,0.0171,-0.0843,-0.0971,0.0312,-0.1914,-0.2629,0.0017,0.1081,-0.0245,-0.2148,0.2527,-0.3835,0.2229,-0.6082,-0.1186,0.0450,-0.0705,0.0410,-0.0077,0.0854,0.0011,-0.1388,0.0307,-0.4865,-0.2210,-1.5284,0.1863,0.8388,0.2293,-0.3084,0.1113,-0.3628,0.1587,-0.1305,-0.0779,0.0015,0.0280,0.0086,-0.1414,-0.0066,-0.1136,-0.0530,-1.0323,-0.0716,-0.0669,0.1295,-0.0034,0.0137,0.0226,0.1155,-0.1853,-0.2029,0.1827,-0.2394,0.0247,0.0683,-0.1368,-0.1104,-0.0132,0.0099,0.0582,-0.2308,0.0579,-0.1044,0.0897,-0.1388,0.1348,-0.0749,-0.1725,-0.0750,0.0568,0.1119,0.0428,0.0352,0.0440,-0.1680,-0.1730,0.0534,-0.0923,0.1143,0.0781,-0.1110,-0.1803,0.3294,0.0324,0.0418,0.0122,-0.1351,-0.1465,0.0692,-0.1397,0.1998,0.1055,-0.2622,0.1127,0.0092,-0.0947,-0.0242,0.0172,0.0173,0.1068,-0.1304,0.0866,0.1543,0.0741,-1.0887,0.1114,0.1438,0.0428,-0.0859,-0.1122,-0.1553,-0.0585,0.2817,-0.1093,-0.0086,-0.0578,-0.1703,-0.0494,-0.2042,-0.0925,-0.0352,0.1221,-0.0597,-0.0656,0.0902,-0.0432,0.1620,-0.0014,-0.0150,-0.1777,0.1081,0.1224,-0.1817,-0.0506,-0.0521,-0.1494,-0.1948,0.0537,0.0595,-0.0037,0.0331,-0.0837,-0.0271,-0.0808,-0.1639,0.0115,0.0736,-0.0774,-0.1451,-0.1728,-0.0407,0.0434,0.0498,0.1666,0.1360,-0.1843,0.0270,-0.1038,0.1262,0.1121,-0.0242,-0.1090,0.1101,0.1097,-0.1401,-0.1301,-0.0194,-0.0986,0.0659,0.0717,0.0887,-0.1233,0.0631,-0.1232,-0.0240,-0.0037,-0.0982,-0.0535,-0.1465,0.0785,0.1142,-0.0045,0.1360,0.1393,0.1523,0.1936,-0.0569,-0.1873,0.0936,-0.0157,0.0850,-0.0116,0.0675,-0.1191,0.0932,-0.1034,-0.0960,0.0470,0.1748,0.0149,0.0250,-0.0223,-0.1595,0.0700,-0.2169,-0.0802,0.0097,-0.1291,-0.0278,0.1144,0.0979,-0.0919,-0.0258,0.0052,-0.0356,-0.1262,0.1029,-0.0675,-0.1646,-0.1078,-0.1336,-0.0734,-0.0516,0.0201,0.0019,-0.1324,0.1186,0.1089,-0.1126,0.1328,0.1249,0.0021,0.1081,-0.0528,0.1122,-0.0794,0.0360,0.0621,0.0637,-0.1388,-0.1584,0.0560,0.0251,-0.1302,0.0762,-0.2408,0.0855,-0.0073,-0.0018,-0.1709,-0.4683,-0.5310,-0.0881,-0.1240,-0.0952,-0.4208,-0.2688,-0.1230,0.0108,0.0978,0.1577,0.0187,0.0603,0.2051,-0.0431,0.0360,-0.1524,-0.1289,-0.1614,-0.0880,-0.0711,-0.2049,-0.0577,-0.0874,0.0797,-0.3415,-0.2120,-0.2039,-0.0947,-0.1943,0.0015,-0.2648,-0.1445,-0.0489,-0.1569,-0.0471,-0.0860,-0.2085,0.0821,-0.0929,-0.0620,-0.0525,-0.0778,0.1256,0.0467,-0.2937,-0.0658,0.1506,0.0201,-0.1789,-0.1602,0.0316,-0.0837,-0.1296,-0.8646,-0.0984,0.1464,0.0570,0.0682,-0.0118,-0.0279,-0.0468,0.1013,-0.1569,-0.1862,-0.0710,-0.0697,-0.0031,-0.0127,0.0393,0.1318,-0.3520,-0.2228,-0.1393,0.1564,-0.0697,0.1359,-0.2038,0.0676,-0.1501,-0.4120,-0.3714,-0.0985,0.1400,-0.0387,-0.1529,0.0550,-0.1952,-0.1078,0.0597,0.1007,0.1112,-0.1338,-0.1635,-0.8940,0.0369,-2.2593,-1.2020,0.4188,0.0605,-0.5900,-0.4171,-4.3362,-2.9858,0.0630,-0.3345,-0.6561,-1.2752,0.0689,0.0297,-0.2107,-1.4357,-0.3890,-5.3985,-0.1977,-0.2139,-1.5345,-4.8019,-0.0411,-0.0621,-0.1606,0.4294,0.0518,0.0000,-0.2824,-4.6203,0.4995,-0.5866,-0.2019,-0.1666,-0.0957,-0.2232,-1.8548,-0.1800,0.5447,-2.0177,-1.9111,-4.4364,-0.1601,-0.1621,0.0056,-0.0102,-0.0203,-7.2929,1.6132,0.1848,0.5953,0.5550,-1.6998,-0.1671,-0.0014,-0.1044,0.1854,-0.1478,-0.1584,-0.0342,0.5329,-6.8268,-0.1557,-0.2475,-2.0375,-0.2384,0.2313,0.6020,-0.0405,-0.0269,-0.1052,-0.1335,0.0351,-3.3518,-0.1206,-0.1762,-17.1554,-1.5592,0.3273,-0.9958,-0.6596,-0.3571,0.0639,-0.1778,-0.7101,0.6293,-0.1518,-1.7976,0.0096,-0.0026,0.0730,-0.1359,0.0092,-0.5029,0.0237,-0.4901,-0.1708,0.1530,-0.1208,0.1128,0.0118,-0.1283,0.0360,-0.0072,-0.1644,0.0424,-0.0469,-0.0222,-0.0898,0.1533,0.0820,-0.0825,-0.1311,-0.0559,0.1014,0.1543,0.0614,-0.0823,-0.0393,0.2072,-0.0213,0.0300,-0.0575,-0.0279,0.1355,0.1859,-0.0863,0.0957,0.0701,0.1792,0.0147,-0.1303,-0.0832,0.0326,-0.0645,0.1271,-0.0853,-0.0219,0.0608,-0.1088,-0.0906,-0.0752,-0.0661,0.1227,-0.1872,-0.2066,-0.1396,-0.0545,-0.0717,0.0249,0.0821,-0.0056,0.1430,-0.0005,0.1474,-0.0272,0.1201,0.0114,-0.1765,0.0495,-0.1526,-0.0722,0.0756,0.0146,0.0391,-0.0056,0.0104,0.0118,-0.1368,-0.1320,-0.1391,-0.0391,0.1099,0.0711,0.1097,0.0845,-0.0883,-0.0660,0.1582,0.0580,0.1772,-0.0033,-0.0970,-0.0028,-0.1335,-0.0492,0.0869,0.0895,0.0977,0.0970,-0.1422,0.1112,0.1515,0.0499,-0.1667,0.0207,-0.0296,0.0845,-0.1475,0.0181,0.0912,0.0157,0.0208,0.0353,0.1092,0.0514,-0.0049,0.1290,0.0762,-0.0759,-0.0271,-0.1371,0.0979,0.0258,-0.1469,0.0560,0.0327,0.1710,-0.1643,0.0113,0.1205,0.0588,-0.1562,0.1687,0.0059,-0.1622,-0.1061,-0.0357,-0.0742,-0.0654,0.0734,-0.0516,-0.0642,-0.0549,-0.1476,0.1315,-0.0415,0.1056,-0.0668,0.1234,-0.0802,0.0691,0.0221,0.1237,0.0947,-0.0491,-0.1404,0.0375,-0.0252,0.0299,0.0880,-0.0233,-0.0720,-0.1602,-0.0432,0.1179,-0.1095,0.0536,0.1207,-0.0442,-0.0245,0.1619,0.0037,-0.1157,-0.1168,0.0559,-0.0173,0.1667,0.0429,-0.0808,-0.0952,0.0990,0.0458,0.0278,0.0046,-0.1138,0.1226,0.0125,0.0100,0.1673,-0.1067,0.0692,0.0321,-0.0689,0.1236,-0.1300,0.0928,-0.1150,0.0308,0.0510,-0.1651,-0.0889,-0.0391,-0.1247,0.1214,0.1432,0.1226,0.0110,0.0244,-0.1256,-0.0545,0.1328,-0.0526,-0.0905,-0.0167,-0.1147,0.0759,-0.1600,0.1524,-0.0681,-0.0573,-0.0035,0.0438,-0.0051,0.1270,-0.0451,0.0746,-0.1639,0.1244,-0.0134,-0.0588,-0.1153,-0.1365,0.0766,-0.1681,-0.1565,0.1242,0.1391,0.0653,-0.1553,-0.0628,0.0264,0.0277,-0.1129,-0.0596,0.0671,-0.1389,-0.0327,0.1306,0.1335,0.1547,0.1528,-0.0999,-0.0260,0.1500,0.0775,0.0936,0.0671,-0.0847,0.0363,-0.1637,0.1140,0.0614,0.0768,-0.0172,-0.0935,-0.0249,0.1061,0.1440,-0.1076,-0.0408,-0.0023,0.0241,-0.1430,-0.0614,0.0516,0.1654,0.0065,-0.1615,0.1465,-0.1644,0.0841,0.1230,0.0212,0.0338,0.1221,-0.0656,0.1170,-0.0549,-0.0676,0.1567,0.1545,0.0921,0.1295,0.1679,-0.1089,-0.0180,0.1332,-0.0538,0.1634,0.1056,0.0558,0.1142,0.1683,-0.0505,-0.0662,0.0847,-0.1280,-1.4980,-0.0956,-0.3100,1.2486,0.2916,-0.1256,-0.0208,-1.7335,-1.0430,-0.2860,0.0292,-7.5008,-2.9192,-2.1808,-0.3128,-0.0916,-0.0805,-1.2746,-0.5027,-0.1909,-0.1274,-2.8715,-3.3797,-1.7660,-0.0900,-0.0128,-0.1710,-0.2246,-0.1456,1.4673,-0.0426,0.4680,0.0549,-0.3161,0.2651,0.0752,-0.0568,-0.2204,-0.0963,0.1162,-3.6558,-0.0464,-0.0054,-1.3973,-1.2996,0.0521,-0.0647,0.0161,-0.0924,-1.4247,-0.3265,-0.5862,-0.0160,-5.2691,-0.1741,0.0423,-0.0274,-0.1484,-0.0493,0.1377,-0.2092,0.0271,0.2172,-1.5708,-0.1615,-0.8780,-0.2031,-2.3620,-0.4465,-0.6726,0.0369,-0.0033,0.0884,-0.1498,-0.0561,2.2533,0.1172,-0.0036,-2.6425,1.5969,-0.0412,-0.3821,-2.9481,-4.7780,-0.1554,-0.0575,-0.2829,-0.6806,-0.1043,-2.2181,-0.1273,-0.0208,0.0892,-0.3286,0.0140,-0.0906,-0.2014,-0.4529,-0.0184,0.1402,-0.5048,0.0217,-0.1735,-0.3667,-0.8004,-0.1438,0.0405,-0.2064,0.2297,0.0480,-0.0201,0.2206,-0.5815,-0.5871,-0.0102,0.2690,-0.0768,-0.2389,-0.1722,-0.0179,-0.1638,-0.6744,0.1236,-0.2669,0.1167,-0.0280,-0.0130,-0.0797,-0.1120,-0.2000,-0.1484,-0.2913,-0.0166,-0.2871,0.0411,-0.1282,0.0248,-0.1521,-0.1373,-0.0392,-0.1590,-0.4556,-0.2780,-0.3920,0.1406,-0.2488,-0.0305,0.0310,-0.0554,-0.0090,0.1432,-0.3423,0.0378,-0.5584,-0.3194,-0.0501,0.1029,-0.0001,-0.7669,-0.0865,0.1097,-0.1619,-0.3907,-2.1014,-0.1306,-1.1391,0.1971,-0.0089,0.1629,-1.3342,-0.4467,0.0784,-0.0034,-0.4001,-0.2030,-0.3371,-0.0955,-0.2078,-0.5457,-0.1186,-1.0992,0.2468,0.0882,-0.7795,-0.1522,-0.0459,0.4987,-0.9589,-0.0752,-0.6392,0.0636,-0.1531,-0.3296,-0.9075,-0.5124,-0.0481,0.0215,0.1277,0.1181,-0.4612,-0.1533,-0.1403,0.0801,0.1837,-0.0330,-0.0491,0.0871,-0.0606,0.0555,0.0156,-0.0304,-0.2534,-0.0406,-0.0771,-0.0252,-0.1143,-0.0298,0.1021,-0.1624,0.0341,-0.1518,-0.0118,0.0445,0.1535,0.0753,-0.0922,-0.0583,-0.1118,-0.1129,0.0193,-0.1263,-0.0894,0.0444,-0.0531,-0.0418,0.0306,-0.1695,0.1254,-0.0734,-0.1002,-0.0658,-0.0925,0.1169,-0.1906,-0.1118,0.0587,-0.0374,0.1168,-0.0046,0.1185,0.1201,0.1368,0.1714,-0.0133,-0.0976,-0.1248,-0.1450,-0.0664,-0.0296,-0.1326,-0.3752,-0.0131,0.1319,0.1219,0.0533,-0.0165,0.0490,0.1945,-0.0644,-0.1339,-0.0340,-0.0937,-0.0961,-0.0003,0.0264,0.0255,-0.1527,-0.1274,-0.1696,0.0820,0.1667,-0.0144,0.1132,-0.1796,-0.0948,-0.0544,-0.0912,-0.2007,-0.0358,-0.0112,0.0152,0.0829,0.0396,-0.0909,-0.0245,0.1149,-0.0847,-0.0591,0.1198,0.0775,0.0536,0.1650,0.0890,-0.0686,0.1719,-0.1750,0.1204,0.0548,-0.1587,0.1482,0.1003,0.0285,-0.0420,0.0047,0.0327,-0.0478,-0.1307,0.0463,-0.0993,-0.1446,0.0586,0.1475,0.0505,-0.0490,0.0824,0.0539,0.0483,-0.0196,-0.1490,-0.0681,0.0365,0.0599,0.0308,-0.0416,-0.1637,-0.0085,0.0678,-0.1679,-0.1309,0.0717,0.1011,-0.0078,-0.1387,0.1049,-0.0698,0.0053,-0.0723,-0.0136,0.0171,-0.1956,-0.0549,-0.0495,0.2072,0.0054,-0.1547,-0.0880,0.0363,0.0208,0.0782,-0.0366,-0.0789,-0.0571,-0.0636,-0.0246,-0.1065,0.0826,-0.0665,-0.1284,0.0850,-0.0134,0.1331,-0.1098,0.2075,-0.1451,-0.0226,-0.0140,-0.1536,-0.0267,-0.1657,0.1449,-0.0917,-0.0783,0.0124,0.1305,0.1149,0.0928,-0.0085,0.1095,0.1059,0.1521,-0.0447,0.0653,-0.1433,0.0754,-0.0598,0.0603,0.0728,-0.0137,0.0136,0.0558,0.7702,-0.1463,-2.0317,0.5808,0.8048,0.0367,2.4903,2.1520,-2.6367,1.2239,-0.0066,-3.6132,-1.2597,1.4475,1.8079,2.0738,0.2785,0.7456,0.7280,-0.7702,-0.1327,0.3552,2.6949,-0.0349,-0.1710,0.6302,0.0411,1.3150,0.4431,0.1774,1.8391,0.3421,2.7988,0.9570,3.2098,-0.1576,0.0130,0.0551,1.4766,0.7153,3.8035,-1.3320,1.6627,-0.6470,0.4812,0.3137,-0.0144,2.7385,0.4400,3.7454,2.4688,2.6582,2.9782,2.5897,2.0065,0.1392,-0.1645,-0.0081,1.5125,-0.0553,2.2360,-0.1020,2.4350,2.7887,-0.1410,-0.0987,2.3811,1.1589,2.2218,0.1511,0.8084,0.0717,0.4111,0.7973,0.2947,0.8053,-0.0426,-0.2045,1.7712,0.9040,0.1582,0.6710,2.0596,2.3489,0.1423,0.6930,-0.6516,-1.9031,-0.0483,0.2969,-0.1514,-0.0114,0.3531,0.1986,0.3668,1.4254,-0.0997,2.0309,-0.0493,3.6314,-0.4747,-0.1828,0.5880,0.6363,0.3703,-0.0757,-0.1127,0.9966,-0.6754,0.6202,-0.1172,1.3410,1.1703,0.7351,-0.2268,0.2496,0.0432,-0.8088,-0.4708,0.6168,-0.0674,-0.2742,0.4024,-0.3116,0.1284,-0.0720,-0.1680,0.3748,0.1870,0.1804,0.2473,0.0605,-0.1823,-0.1017,0.4725,0.1474,-0.1460,0.0820,-0.2092,-0.1839,0.0700,-0.3183,0.3657,-0.1195,-0.4315,-0.1717,-0.0490,-0.2033,-0.0887,0.2265,-0.6237,1.1891,0.1497,-0.1143,0.8965,0.0821,0.0509,-0.1707,-0.0509,0.0996,0.0317,-0.0401,0.1979,0.1824,0.1216,-0.2186,0.4425,0.2681,-0.4464,-0.3902,-0.0340,-0.1208,0.1846,-0.2290,0.1141,-0.7015,-0.1582,0.4879,-1.5917,-2.1080,0.1209,-0.0408,1.0834,-3.0404,-0.0481,-0.0571,0.6283,0.5749,-0.0958,-0.1189,-0.1735,-0.0978,0.0640,0.0081,0.0670,-0.5086,-0.0600,-1.6097,-0.0009,0.2048,0.0589,0.0908,0.0200,-0.0145,-0.1750,0.0588,-0.1476,-0.2910,-0.0775,-0.2044,-0.1744,0.1259,-0.1077,0.1541,-0.1298,-0.0650,-0.1609,0.1208,0.0605,-0.1072,-0.0030,0.1601,-0.0194,0.1449,-0.1880,-0.1009,0.0041,-0.1625,-0.0378,-0.0987,0.0766,0.1442,-0.0762,0.0874,-0.1259,0.0973,-0.0774,-0.0931,-0.1447,-0.0124,0.0917,0.1503,0.0327,-0.0707,-0.4047,-0.2493,-0.1234,0.1208,-0.0047,0.0153,-0.0238,0.1949,-0.1937,-0.1285,-0.0528,0.1100,-0.0278,-0.0154,-0.0109,-0.1788,0.0465,-0.1271,-0.0029,0.0717,-0.0641,0.0316,-0.0730,0.0466,-0.0906,-0.1422,0.1009,0.0849,0.1010,0.0831,-0.0141,-0.2317,-0.0361,0.2097,0.1652,0.0736,-0.2154,-0.0648,-0.0478,0.1268,-0.0636,-0.0063,0.0896,-0.1415,0.0374,0.2119,0.0244,0.0227,-0.2144,0.1457,-0.0502,-0.1714,-0.0384,0.0986,-0.1460,-0.0364,-0.2644,-0.0856,-0.0003,-0.1630,0.0791,-0.0943,-0.1623,-0.0011,-0.0226,-0.1607,-0.0591,0.1275,0.0013,-0.0092,-0.0152,-0.0666,-0.0238,-0.0542,-0.1078,0.1137,0.0413,-0.0305,-0.1777,0.0140,-0.1759,-0.0709,-0.0071,0.0945,-0.0258,-0.1232,-0.1330,-0.2215,0.1222,0.0760,0.0956,-0.1411,-0.0285,-0.0190,0.0425,-0.1304,0.1358,-0.0777,0.0074,-0.0871,0.1457,0.2267,-0.1515,-0.0011,0.0295,-0.0697,-0.0930,-0.0524,-0.0428,-0.1369,0.1199,-0.2933,-0.1458,0.0787,-0.0386,-0.1320,-0.1015,-0.1422,-0.1063,0.1088,-0.0207,0.0894,0.1026,-0.0633,-0.0455,0.0290,-0.1069,0.0598,0.0243,0.0014,-0.1315,-0.1334,-0.0003,0.0095,-0.1116,0.0678,-0.0600,0.0321,0.1445,-0.2362,0.1311,0.0557,-0.0081,-0.1940,0.0975,-0.1057,-0.0343,-0.1549,0.0614,0.0707,0.0943,-0.0667,-0.1290,-0.0931,-0.1225,0.0412,0.0784,-0.0376,0.0418,0.1989,0.1660,-0.1327,-0.0820,-0.0191,-0.1833,0.0801,0.1410,-0.2577,0.0747,-0.0517,-0.1182,-0.0938,-0.0293,-0.1318,-0.0006,0.1192,0.0898,-0.1860,-0.1716,0.0791,0.0516,-0.0408,-0.0465,-0.0383,0.0446,-0.1149,-0.0438,-0.1607,0.0877,-0.1469,0.0465,-0.0501,-0.0694,0.1430,-0.0203,0.1478,-0.1540,-0.1084,-0.0335,-0.1280,-0.0052,-0.1487,0.0882,-0.1489,-0.1238,-0.0042,0.1008,-0.1616,0.0028,0.0315,0.1566,-0.1847,-0.0558,-0.0648,-0.0225,-0.0682,-0.4708,0.0372,-0.0414,0.1193,-0.1882,-0.1173,0.0131,0.0300,-0.1201,-0.1771,-0.1027,-0.0142,0.0615,-0.0362,-0.0086,0.1265,0.1063,-0.2763,0.1202,-0.2058,0.0532,0.0895,0.0521,-0.0904,0.0366,0.0059,-0.0186,0.0047,0.0721,0.0186,0.1026,0.0133,0.0648,-0.0006,0.1197,-0.0012,-0.1484,0.0040,-0.0518,0.0324,-0.1527,-0.0010,-0.1261,0.2211,0.1869,-0.1322,0.0918,-0.0136,-0.1604,0.1070,0.0774,-0.4613,-0.0085,0.0617,-0.1517,-0.0702,-0.1862,0.0210,0.0021,0.1059,-0.1529,-0.1407,-0.1407,-0.1902,0.0373,-0.0938,-0.0083,0.1399,0.0417,0.1194,-0.0639,-0.0485,-0.0394,-0.1741,-0.1032,0.0439,0.0387,-0.2349,-0.1015,-0.1073,0.0714,-0.0582,-0.1937,-0.1450,-0.0259,0.0750,-0.0366,0.0356,-0.0734,-0.0973,0.1747,-0.2036,0.1486,-0.1557,0.1244,-0.0036,-0.1200,-0.1074,-0.0660,-0.1711,-0.0955,0.0006,-0.0057,